
//<![CDATA[

// a few things don't have var in front of them - they update already existing variables the game needs
lanesSide = 3;
patchesAhead = 50;
patchesBehind = 10;
trainIterations = 100000;

// the number of other autonomous vehicles controlled by your network
otherAgents = 0; // max of 9

var num_inputs = (lanesSide * 2 + 1) * (patchesAhead + patchesBehind);
var num_actions = 5;
var temporal_window = 0;
var network_size = num_inputs * temporal_window + num_actions * temporal_window + num_inputs;

var layer_defs = [];
    layer_defs.push({
    type: 'input',
    out_sx: 1,
    out_sy: 1,
    out_depth: network_size
});
layer_defs.push({
    type: 'fc',
    num_neurons: 48,
    activation: 'tanh'
});
layer_defs.push({
    type: 'fc',
    num_neurons: 48,
    activation: 'tanh'
});
layer_defs.push({
    type: 'fc',
    num_neurons: 48,
    activation: 'tanh'
});
layer_defs.push({
    type: 'fc',
    num_neurons: 48,
    activation: 'tanh'
});
layer_defs.push({
    type: 'fc',
    num_neurons: 48,
    activation: 'tanh'
});
layer_defs.push({
    type: 'fc',
    num_neurons: 48,
    activation: 'tanh'
});
layer_defs.push({
    type: 'regression',
    num_neurons: num_actions
});

var tdtrainer_options = {
    learning_rate: 0.001,
    momentum: 0.0,
    batch_size: 128,
    l2_decay: 0.01
};

var opt = {};
opt.temporal_window = temporal_window;
opt.experience_size = 40000;
opt.start_learn_threshold = 2000;
opt.gamma = 0.98;
opt.learning_steps_total =  10000;
opt.learning_steps_burnin =  1000;
opt.epsilon_min = 0.05;
opt.epsilon_test_time = 0.0;
opt.layer_defs = layer_defs;
opt.tdtrainer_options = tdtrainer_options;

brain = new deepqlearn.Brain(num_inputs, num_actions, opt);

learn = function (state, lastReward) {
brain.backward(lastReward);
var action = brain.forward(state);

draw_net();
draw_stats();

return action;
}

//]]>

/*###########*/
if (brain) {
brain.value_net.fromJSON({"layers":[{"out_depth":420,"out_sx":1,"out_sy":1,"layer_type":"input"},{"out_depth":48,"out_sx":1,"out_sy":1,"layer_type":"fc","num_inputs":420,"l1_decay_mul":0,"l2_decay_mul":1,"filters":[{"sx":1,"sy":1,"depth":420,"w":{"0":0.008081077030036096,"1":-0.06062273319440905,"2":-0.11802030754949439,"3":0.017558657981717074,"4":0.041818428151736614,"5":-0.09164643332313922,"6":0.1129842230857104,"7":0.04827732953741406,"8":-0.1222695053333387,"9":-0.039996901590503384,"10":-0.0696279346701847,"11":-0.0265717464614827,"12":-0.06636157213986836,"13":0.07918162207442533,"14":-0.21215971951824628,"15":-0.1187504057839783,"16":-0.03898031481679653,"17":-0.23343891812427905,"18":-0.07626712286877817,"19":0.06209140340627545,"20":-0.010369506190021898,"21":-0.2061449879712973,"22":0.06814828833843768,"23":-0.1841568624437908,"24":-0.1341271371761187,"25":0.015917994999440525,"26":0.05254183459386181,"27":-0.03500569180681287,"28":-0.28777334741714816,"29":0.04392777357962066,"30":-0.14341717998461972,"31":-0.035457818328867866,"32":0.0912365452534036,"33":0.06425988796286997,"34":0.03982989948478593,"35":-0.26085248526903576,"36":-0.057140292044444554,"37":-0.1905882642792771,"38":-0.006000529706726952,"39":0.13180461317176054,"40":-0.14105855966734657,"41":0.011545622615668426,"42":-0.15217308551344494,"43":-0.15829991604984683,"44":-0.1321321919855992,"45":0.02950643783723643,"46":0.038560366068745355,"47":-0.0025047782359493725,"48":0.08187701871755884,"49":-0.24303986370317668,"50":-0.19771644432399593,"51":-0.12411657918545654,"52":0.18754758421560264,"53":-0.05054961287942229,"54":-0.07046908841960395,"55":0.1168153970044097,"56":-0.17446515682386726,"57":-0.16185189041258563,"58":-0.025926383421019817,"59":0.053135605139054444,"60":0.08938483806260973,"61":-0.0064009058661150305,"62":0.1107612397390669,"63":-0.14327721492338247,"64":-0.03486397531982285,"65":-0.05326602201904467,"66":-0.04566116097869006,"67":0.049122582387841986,"68":0.14184357344406,"69":0.11772964559786156,"70":-0.03636040351860912,"71":-0.1220117929917607,"72":-0.03822303188680775,"73":-0.08532643417802012,"74":-0.024368301910709687,"75":-0.09591188631719898,"76":0.1667455624520768,"77":0.13980554916223872,"78":-0.09812748214702817,"79":0.015446634498886634,"80":0.00003231660331437167,"81":0.04133807823916965,"82":0.06892315638085915,"83":0.04255043351263307,"84":0.02976350757071227,"85":-0.022649222484003945,"86":-0.021592644233932857,"87":0.1103682519762215,"88":0.11472901926190505,"89":0.07317562538114214,"90":-0.08834658213239242,"91":0.0972029155754988,"92":-0.04464877471788402,"93":-0.01343827118765389,"94":0.0537497300601993,"95":0.07105508065806346,"96":0.029381416898345836,"97":0.03493608823972531,"98":0.006633966971204193,"99":-0.034565312369529505,"100":-0.13058107456252277,"101":0.14701838256010305,"102":0.04770513911322086,"103":0.029268294039045562,"104":-0.0007464197089135495,"105":-0.015117310262186589,"106":-0.06306721232215821,"107":-0.06333458235443176,"108":0.06548534803342182,"109":0.16480906436883846,"110":-0.04910390689069337,"111":-0.041473831168588986,"112":0.07130836161868666,"113":-0.008115688493275399,"114":-0.1827419841182678,"115":0.2666816554245289,"116":0.13371832516817295,"117":0.11361727891942411,"118":0.07170454567511958,"119":0.010815854242469091,"120":-0.013339061692427235,"121":-0.1193096841131693,"122":0.27658865837361396,"123":0.17424816708231558,"124":0.0901153611052413,"125":0.10122554082795396,"126":0.009532537871755118,"127":-0.10676371096902242,"128":-0.08786473567912277,"129":0.15155895039897793,"130":0.269564280875648,"131":0.0011674678370305997,"132":0.10154190385437722,"133":-0.1210219276366946,"134":0.06097753583082013,"135":0.0220522694534499,"136":-0.02695069446803446,"137":0.10855794395299875,"138":0.007426697059541649,"139":0.03939285299432368,"140":-0.12205716712988209,"141":-0.007974811355002004,"142":-0.10898100979677676,"143":-0.02522332409668453,"144":0.1430306905321425,"145":-0.12899620468358722,"146":-0.06742728475406595,"147":-0.02700792956333633,"148":0.1178785536915561,"149":-0.03754904072236404,"150":-0.21109049417840248,"151":0.12759067941762733,"152":0.015452792712714988,"153":-0.08939697302301511,"154":0.08733768896701309,"155":-0.0762238669953061,"156":-0.10675534374457944,"157":-0.13337748154100498,"158":0.15360458673283947,"159":0.1244213712859596,"160":-0.09319862933922488,"161":-0.025786252593351745,"162":-0.04344250363973402,"163":-0.22019615043669657,"164":-0.10692461623249917,"165":0.1485060988215379,"166":-0.10124552026174749,"167":0.1438196323160919,"168":-0.010680682366332453,"169":0.03044278183628319,"170":0.07511390423659602,"171":-0.10578027253339137,"172":0.026215421424305038,"173":-0.024054829573975103,"174":-0.024284164230425828,"175":-0.009897526242855746,"176":-0.04924595354564043,"177":0.04755613122339788,"178":-0.04557237251059547,"179":-0.055408280438657885,"180":0.0962936796207812,"181":0.009130750287431905,"182":0.11333239533002988,"183":-0.00997113584593542,"184":-0.010309997938433197,"185":-0.1751675296423604,"186":0.03846442805710349,"187":-0.009484503692486967,"188":-0.03614479416923266,"189":0.1694679460987815,"190":0.042058016037326486,"191":0.036378463506940975,"192":0.020774996233270438,"193":0.048062208241528515,"194":0.11486087482072826,"195":-0.07539511141092776,"196":0.08253240712529959,"197":0.0795395762552817,"198":-0.13745569534154806,"199":-0.07299800386793753,"200":0.13228521783563982,"201":0.1438362071743658,"202":0.05383659677825896,"203":0.0441903886083265,"204":0.14628315473163847,"205":-0.19865825072396293,"206":-0.09271719486274688,"207":0.14994656663456926,"208":0.1860930071907933,"209":0.030115113192722413,"210":0.0037990675743438617,"211":0.012488832106675165,"212":-0.09529152210253172,"213":0.00565607080720711,"214":0.19043323691764588,"215":0.01798913680500749,"216":-0.028127303271157852,"217":-0.03560384287558898,"218":0.13412674745617645,"219":-0.08368104306641852,"220":0.053462939268314004,"221":0.08571919062490647,"222":0.11277390076119066,"223":-0.049341865621282774,"224":-0.005142396831981416,"225":0.06189314974709288,"226":0.006776233008887162,"227":-0.02855723649080091,"228":-0.19005429487675726,"229":0.008919712530513614,"230":-0.1340875520207006,"231":-0.06015886311682426,"232":0.1299011083625179,"233":-0.017297854341040173,"234":-0.1491375146476914,"235":-0.01396820109808123,"236":0.058980338252193815,"237":-0.02006935123996103,"238":0.11853176122936106,"239":-0.01138926377456117,"240":0.0018701243980970054,"241":-0.15510869134716151,"242":0.018670760072922468,"243":0.013403068925471547,"244":0.025039160210818704,"245":0.16515653397198063,"246":-0.0026033774992330803,"247":-0.027475413196963165,"248":-0.14400470405361032,"249":-0.0179068127290622,"250":0.058931178804251555,"251":0.14512554942346984,"252":0.09230212308886336,"253":-0.012468089738268021,"254":0.04423600900705276,"255":-0.09469554078464688,"256":0.08196634197349034,"257":-0.12623226049061104,"258":-0.011686039134629048,"259":0.11041015863334391,"260":0.049022020930019485,"261":-0.10521006242170737,"262":-0.14845687389514303,"263":0.0006444750929377885,"264":-0.12548242362780923,"265":0.04692214218578059,"266":-0.02779649948824708,"267":0.05964943918904114,"268":0.01803837834061511,"269":-0.1085960650562717,"270":-0.062259717100592554,"271":-0.006614936253696269,"272":-0.005690691096328626,"273":0.0727129411059575,"274":0.19895917508112265,"275":0.004036564999354834,"276":-0.13845261038914486,"277":0.014890218034138777,"278":-0.0966971545656127,"279":-0.04226570562240565,"280":0.056106481947862295,"281":0.23680240626002014,"282":0.06264007480951748,"283":-0.24133968045091939,"284":0.03428706712795983,"285":-0.03842601033837662,"286":-0.13809653686234558,"287":-0.026178769366009647,"288":0.11950826408841397,"289":0.11118586220199961,"290":-0.12767669902234374,"291":0.04195858035937782,"292":0.05747773244340952,"293":-0.10564812279517091,"294":0.07410444917738862,"295":0.25495552846757386,"296":0.014841575366049914,"297":-0.1000488435838013,"298":0.058458005281689894,"299":0.029569224912445992,"300":-0.11659850928885147,"301":-0.02711169879649455,"302":0.19694701700942663,"303":0.1251664023743718,"304":-0.10866373329034912,"305":0.020939864469631496,"306":0.02862411891070214,"307":-0.04494121785529875,"308":0.04906433524853512,"309":0.38977673805491386,"310":0.18170287762849063,"311":-0.1622145861765012,"312":0.08507673488252818,"313":-0.09389719749124414,"314":0.0309762006152195,"315":0.03812190913283794,"316":0.16570121947439292,"317":0.16361063922905536,"318":-0.14501404134685592,"319":-0.17947368827464674,"320":0.01896515650527681,"321":0.12370105016402431,"322":-0.046742221611509704,"323":0.10450548355747116,"324":0.3139896619016513,"325":-0.1939664727004935,"326":-0.1828573055301911,"327":-0.08984078092726025,"328":0.08700924832661074,"329":-0.026348439953599225,"330":-0.019567287820919245,"331":0.3035875429836147,"332":0.11232805569289031,"333":-0.021962322347726472,"334":-0.005902272175436337,"335":0.05250362260461834,"336":-0.17246046809887758,"337":0.05422224676412694,"338":0.36529147466278783,"339":0.14955694098613265,"340":-0.0718041802224394,"341":-0.08868603007946145,"342":0.14654769850687055,"343":-0.13726607289257006,"344":0.09872082949701591,"345":0.455052809223502,"346":0.11055484020954158,"347":0.22220507780171436,"348":-0.15941092306959725,"349":-0.04836869626929176,"350":-0.04644231402817797,"351":0.08745920615418581,"352":0.38649670220474186,"353":-0.03249642368931726,"354":0.05467275541380791,"355":-0.16376854952974335,"356":-0.16792324908590642,"357":-0.05006744233753663,"358":0.19693089576396003,"359":0.32208745102420094,"360":-0.05314941437012987,"361":0.17396369606243842,"362":-0.1588450895081408,"363":-0.11397883684667805,"364":-0.07638455635226057,"365":0.12849920911162463,"366":0.32175205920224276,"367":-0.0670608375534373,"368":0.11251162726363063,"369":0.09824575057405455,"370":0.06978029413085686,"371":-0.04030234109604001,"372":0.15117107005584154,"373":0.3608324034169044,"374":-0.11318420558620054,"375":0.11050120314521006,"376":-0.004855464296857116,"377":0.10788710168380448,"378":-0.07162219898363632,"379":0.13774259411292375,"380":0.3026533749221494,"381":0.07376276478433222,"382":0.21912918606027734,"383":-0.04063121194359213,"384":0.09283553588182253,"385":-0.1398869136048276,"386":0.2229722664490276,"387":0.0868401987794059,"388":0.12278900356975679,"389":0.09768047247381537,"390":0.04295022564908819,"391":0.03363888056286317,"392":-0.011644846644794173,"393":0.16800305548107328,"394":0.023332931034732298,"395":0.10347113885458457,"396":0.09606931611322897,"397":-0.0002981787513533508,"398":-0.024505789827616996,"399":-0.08605786018403681,"400":0.018202767588206353,"401":0.00792503777421645,"402":-0.1178833539538536,"403":0.1176851013359064,"404":0.2610559552377951,"405":-0.05687959025075764,"406":-0.14600175243235247,"407":0.18217163241923093,"408":-0.06623863533809526,"409":-0.09147808535294431,"410":0.24846667314083729,"411":0.1002673583632875,"412":0.11631672295590206,"413":-0.2636207865699024,"414":0.07058185604748024,"415":-0.13222598982175818,"416":0.05020980120880297,"417":0.21052872111155543,"418":0.2181573118227825,"419":0.1736291882498408}},{"sx":1,"sy":1,"depth":420,"w":{"0":-0.07082693475720447,"1":-0.01547335604796035,"2":0.03951731764311454,"3":-0.005226742706131148,"4":-0.06283310463023338,"5":-0.02922227689037458,"6":-0.08063207022983211,"7":-0.03848331556175427,"8":-0.0761872025648036,"9":0.0006055747122259344,"10":-0.006934615430228769,"11":0.03042231201350098,"12":-0.021085158044792836,"13":-0.018623540951080955,"14":0.0700161024326066,"15":0.050226728083135615,"16":0.0124472786394786,"17":-0.02096715563031487,"18":0.02321993758753487,"19":-0.010298364888141438,"20":0.00925687793989437,"21":0.010718746798391719,"22":0.02767872048617158,"23":-0.035641805814563714,"24":0.023444433997262235,"25":-0.035242635047908595,"26":-0.02976075885180741,"27":-0.07488012134205442,"28":-0.05429012051471256,"29":-0.03540931333968067,"30":0.06962498535036576,"31":0.042631559175828476,"32":-0.005848384942787022,"33":0.09351550907927178,"34":-0.02277871995955558,"35":-0.010646847888765743,"36":-0.012826627558204916,"37":-0.04568146483878737,"38":-0.023138855580717366,"39":-0.009424352669884884,"40":-0.020102955137414905,"41":-0.07377250575737362,"42":-0.03666239630969237,"43":-0.09383423762952404,"44":0.004408941708784879,"45":0.053150687710199256,"46":-0.05143748989342356,"47":0.020701932719569664,"48":-0.07645165214677571,"49":-0.04786121366747109,"50":-0.012657827964738848,"51":-0.07270147709519185,"52":-0.039758089311011456,"53":-0.010817889331347271,"54":-0.05376294207054874,"55":0.022906531869930066,"56":0.027803441212413918,"57":-0.06438304195698781,"58":-0.05446610236729475,"59":0.020918014222500638,"60":-0.059224795639791765,"61":-0.05130972605437295,"62":-0.03612542825855954,"63":-0.08225144830302125,"64":-0.0020057063602621455,"65":0.029317437782361535,"66":-0.01589235454047566,"67":0.006357544761590448,"68":0.0664565662563039,"69":-0.02232299623569196,"70":-0.03688090953124019,"71":-0.07828058130767528,"72":0.09499603261094235,"73":-0.023286505343396234,"74":-0.04610319699280917,"75":-0.06578957574461083,"76":0.01694173335810792,"77":-0.011434922136714482,"78":-0.019690902056779303,"79":-0.05925078912281691,"80":-0.059453289068003214,"81":-0.02941039576944086,"82":-0.0060841347647773835,"83":-0.09100539987513545,"84":-0.04466971803706443,"85":-0.008244600578036753,"86":0.012188340675379479,"87":-0.048430583108530594,"88":-0.010573699973249081,"89":-0.0014330602290007434,"90":0.009239870875503804,"91":-0.0943300881094047,"92":0.026678021617401862,"93":-0.0318281487912032,"94":-0.006670814738484136,"95":0.006460870493289886,"96":0.02534203652438464,"97":-0.06288337581677889,"98":-0.05292538099020033,"99":-0.006724520778521484,"100":-0.07186707868262426,"101":-0.06458250655529724,"102":0.009844196927582679,"103":-0.008301512563275883,"104":-0.09712754025150272,"105":-0.1040222819592131,"106":0.007588204576018268,"107":-0.016167100022269593,"108":-0.04902142376589881,"109":0.005369706599042785,"110":-0.009932703753184917,"111":-0.10952248968501774,"112":0.06552066921170702,"113":0.06913748505955966,"114":-0.03412376047536472,"115":-0.00856362634968109,"116":-0.05019787876422486,"117":-0.025362419689235152,"118":0.1161159221253168,"119":-0.026157304501308456,"120":0.010741388802637294,"121":-0.05006863631574209,"122":-0.10898354280703966,"123":-0.03876555889375943,"124":-0.06723748997104288,"125":-0.0223124478643368,"126":-0.002939320665234599,"127":-0.05412355414009383,"128":0.04087104206802122,"129":0.0008538536314409937,"130":-0.03549652222258335,"131":0.02543086032338778,"132":-0.05163299289140847,"133":-0.05337164512725002,"134":-0.028901154713933244,"135":0.06300836822922737,"136":-0.04821898677816648,"137":-0.004270726600568787,"138":0.0705394029437907,"139":-0.07854142211667914,"140":-0.09092415064033287,"141":0.06041033451911503,"142":-0.023390206148772248,"143":-0.12297149544964285,"144":0.021602853612303238,"145":0.01881507828396741,"146":0.005441063323746254,"147":0.03320220347532424,"148":-0.10542761293768745,"149":0.04278382951328021,"150":-0.06761497305952051,"151":0.03182818855241341,"152":-0.006642819643359371,"153":-0.044332620546106295,"154":-0.02782847716054604,"155":-0.006840735454440278,"156":0.04506715603136997,"157":0.0000898664527037573,"158":-0.01903182048606978,"159":-0.05499846305046708,"160":-0.050296540651781456,"161":0.03141198992327967,"162":-0.03473869579924437,"163":-0.07327627074023899,"164":0.10114363484711231,"165":-0.11038550548322175,"166":0.00690109725255806,"167":-0.007831084832207636,"168":-0.003272073240063226,"169":-0.019687114829953497,"170":0.003978848417141309,"171":-0.06338663381581061,"172":-0.057372571947381046,"173":0.006374411510447513,"174":-0.04715652734799078,"175":0.04658777032908635,"176":-0.10404142650660352,"177":0.046533972496766725,"178":-0.02406873400530633,"179":-0.05792963319199581,"180":-0.01807343526044375,"181":-0.039420528803955406,"182":-0.026524503343444836,"183":0.08924790526361458,"184":-0.02006346448002253,"185":-0.030887311448307385,"186":0.07888837729206204,"187":-0.0003457351758720177,"188":0.009589821195804695,"189":0.011519101722912968,"190":0.016335387870171896,"191":0.02672260426238785,"192":-0.013766063349121987,"193":-0.05979843373973061,"194":-0.09769768326787757,"195":0.0072072019435397055,"196":-0.009575479200393025,"197":0.0018415599373487477,"198":0.005953144200121615,"199":-0.030963366278440718,"200":0.026368529280128783,"201":-0.061264788776237394,"202":0.012004415699588378,"203":0.01475523252714751,"204":-0.04881871530534373,"205":-0.021141909783976287,"206":-0.0853267366220424,"207":-0.019621283824350678,"208":-0.012444384359205255,"209":-0.01243950554452318,"210":0.010753051729699606,"211":-0.011329265700855415,"212":0.03015374760157415,"213":-0.05112140818756444,"214":0.05162713923721361,"215":-0.021398471382672844,"216":-0.07856756778338762,"217":-0.10182602815521011,"218":-0.006959856544463407,"219":0.057311193245401536,"220":-0.1002967500248799,"221":0.043509183277040335,"222":0.0364399394792312,"223":0.012754183814806681,"224":-0.01130026713737895,"225":0.08178209651750142,"226":-0.006592565778406207,"227":0.01183234068060807,"228":-0.05218098750439246,"229":-0.021504353535341497,"230":-0.03384774945460831,"231":0.013369945786604765,"232":-0.0225577215226699,"233":0.023521538514410422,"234":0.012923151824127212,"235":-0.04550818304972601,"236":0.044794375429253394,"237":-0.09659882380670529,"238":-0.152777854927931,"239":-0.06651405825349849,"240":-0.008220955265841278,"241":-0.04656743842397776,"242":0.0012589316731262217,"243":-0.06582735857872186,"244":-0.10830541299936308,"245":-0.03481140449274129,"246":-0.0342629422214321,"247":0.031018968062572233,"248":-0.12555218549145114,"249":0.01173635527127351,"250":-0.0019250501019920875,"251":-0.04343845564031133,"252":-0.03529664539409778,"253":-0.09806779359654476,"254":-0.029786993340314996,"255":0.028957315555076288,"256":-0.04282872808143495,"257":-0.07168977278520215,"258":-0.011460019987725617,"259":-0.07550871426015839,"260":-0.04828069078721639,"261":-0.04144936767709056,"262":-0.03305311628906071,"263":-0.021227353213546716,"264":0.028010296679098743,"265":0.03822649630579081,"266":-0.03128966336541349,"267":-0.08533848070721044,"268":-0.05154727272845586,"269":0.022317965056063975,"270":0.016567489713071003,"271":-0.06715406416706343,"272":-0.021742102358695062,"273":-0.07907081978628394,"274":-0.04000580302979673,"275":-0.005860005684090007,"276":-0.005625649986361352,"277":-0.08016094889403282,"278":-0.04701369068890265,"279":-0.06070679777117667,"280":-0.0015181622633756798,"281":0.04846993271206193,"282":-0.03518274387837042,"283":-0.10359988716403602,"284":0.007905880747423443,"285":-0.006449553948252168,"286":0.03409034457755246,"287":-0.004739589193042833,"288":-0.048606468175545536,"289":-0.043169597690789714,"290":-0.13023292293344246,"291":-0.06277705818092996,"292":-0.0033325259534787363,"293":0.010778338217504263,"294":0.023385864467893976,"295":0.061923499180013594,"296":-0.06569447139986251,"297":-0.02431332375251266,"298":-0.008203439788000077,"299":0.03003652948232792,"300":-0.004924553870698887,"301":0.0295062718983474,"302":-0.045567663805065724,"303":-0.005652304648267454,"304":-0.013405870836259237,"305":-0.03297341279560168,"306":0.09093101234201224,"307":0.027839720356394333,"308":-0.15353315721412697,"309":-0.012777903889703245,"310":0.07946376455212154,"311":0.014444502202417914,"312":-0.01474818060498399,"313":-0.0003827500682241408,"314":0.002236436973535634,"315":0.019989082768051177,"316":-0.061752060307705164,"317":0.03043124838706371,"318":-0.013636503197914152,"319":-0.05552031156946726,"320":-0.027321207461192275,"321":-0.031820375451258896,"322":0.0036199749502711675,"323":0.008640952813875561,"324":-0.04455081265255352,"325":0.018413290291908538,"326":0.006489611616167185,"327":0.04271929759491347,"328":0.02836076341291732,"329":0.05257682555705001,"330":0.024769689951354246,"331":-0.11162240126925037,"332":0.004452770664098355,"333":0.10666430928776043,"334":0.0391089833729848,"335":-0.008327119427210799,"336":-0.06914265815808471,"337":-0.020917940253573714,"338":-0.07602365208406073,"339":0.015106651524244556,"340":-0.04347381833302261,"341":0.04448910195590132,"342":0.06698949671913135,"343":0.028486863604150016,"344":-0.02956693166328414,"345":-0.039255765800548424,"346":-0.11652939743984163,"347":-0.11875945196134255,"348":0.0244572182859893,"349":-0.04242334706900382,"350":0.10491956561692863,"351":-0.04573399211400389,"352":-0.06489549537350019,"353":0.06033886408666933,"354":0.01795103430068056,"355":-0.005492385792414689,"356":-0.005665171451186308,"357":-0.09083911747666522,"358":-0.022707434650581323,"359":0.0019769682376728033,"360":-0.11919374522189674,"361":-0.022617932269991738,"362":0.01901590422573354,"363":-0.000820067797946047,"364":0.0025553980156281133,"365":-0.09264871744141594,"366":-0.06595492725614151,"367":-0.018280453131756583,"368":0.0063997238197106895,"369":-0.0071119356800016225,"370":-0.038046601502702566,"371":-0.002705699612955914,"372":-0.010483495484021301,"373":-0.04705911046530037,"374":-0.05789600282104125,"375":-0.1258691052661246,"376":-0.05027046086873773,"377":-0.07334972636578468,"378":-0.01886965028774612,"379":0.02693761077549534,"380":0.011744915036282708,"381":-0.05379513608451325,"382":-0.011904427315613112,"383":-0.08219459193677604,"384":-0.05094288344344789,"385":-0.01134818195315539,"386":-0.007746865380219605,"387":-0.05557607135215007,"388":-0.07437734225816715,"389":0.09074153397520254,"390":-0.03589175570108634,"391":-0.04184376003467536,"392":-0.10781017499540256,"393":0.011425563120397811,"394":0.053673872869200265,"395":-0.07505668494859996,"396":-0.06563573948980125,"397":0.0037197914036832358,"398":-0.0190292684919012,"399":-0.049488366830085555,"400":-0.018751865045882447,"401":0.05925326550609474,"402":-0.12655101547007258,"403":-0.011525646210138631,"404":0.08683886103362788,"405":-0.04071428628757091,"406":0.007363090363627009,"407":0.0921075809331386,"408":-0.013082156066512626,"409":-0.06221083458546654,"410":-0.04277749437740935,"411":-0.06992047548011886,"412":-0.09640059340562453,"413":-0.10689944812385553,"414":0.026849642715779706,"415":-0.02996397996344045,"416":-0.07535640327348367,"417":-0.06689264842773025,"418":0.04987468220298254,"419":0.00828686063198453}},{"sx":1,"sy":1,"depth":420,"w":{"0":0.07303431437928735,"1":-0.004297153016042123,"2":0.11573889835691402,"3":0.052470277226783005,"4":-0.010283886291916412,"5":0.040095096709185,"6":0.07634568768041809,"7":0.024689928884339532,"8":-0.016888581196773278,"9":-0.02702190007117311,"10":0.02420949418396476,"11":0.061150651983691524,"12":0.05900358172920631,"13":-0.04577907167375013,"14":-0.007245860394686175,"15":-0.0058952822440296706,"16":-0.01901288286009741,"17":0.023900183831228664,"18":-0.035419900901638,"19":0.03922297555485626,"20":-0.055749074688867514,"21":0.048558601699904065,"22":-0.0320520329689429,"23":0.06721059963219073,"24":-0.00048314158695509605,"25":0.06644670553000848,"26":0.08609394906048623,"27":0.07888414997067117,"28":-0.04997955586485403,"29":-0.032551933812142574,"30":0.0984359294701699,"31":-0.010569554450912049,"32":0.022516321189958378,"33":0.04866290684767675,"34":-0.03398826132837591,"35":0.022822698658158058,"36":0.03750503962044423,"37":0.06610895151820996,"38":0.08275681460862065,"39":0.15775952516718286,"40":0.005067321819111519,"41":0.012375281287692297,"42":0.07987230529548688,"43":-0.04559605075065765,"44":-0.006024012485719928,"45":-0.014919015710521509,"46":0.00595361672826721,"47":-0.02290786611151932,"48":0.03778918483756533,"49":0.08605752936675498,"50":-0.06161844530537816,"51":0.037955681484999226,"52":-0.0421530689243918,"53":-0.016591790360422697,"54":-0.033045900429396084,"55":0.08983186092080822,"56":-0.001882718377234099,"57":0.017854568487848027,"58":0.00535688355579489,"59":0.011474686878358318,"60":-0.0455905022765191,"61":0.07198199448820095,"62":-0.03060946318689295,"63":-0.023915912502852334,"64":0.006093002704812584,"65":0.011369742539498299,"66":0.031217220298575328,"67":0.06756053581993264,"68":-0.04757895018322259,"69":0.022343199668525566,"70":0.06746469963225875,"71":0.015052305531001215,"72":0.024055278080093022,"73":-0.004283497361387809,"74":0.029264193184795152,"75":-0.004599811394679603,"76":0.11617067599167648,"77":-0.008537526387222334,"78":0.04826046854843862,"79":0.04136780909528161,"80":0.02937596595069171,"81":-0.0217031868372067,"82":-0.040448289291306914,"83":0.009094370310058669,"84":-0.04307435353688897,"85":0.08223973583544945,"86":0.012346440323259841,"87":-0.05408784342678165,"88":0.06587020860125878,"89":-0.02878475225548568,"90":-0.02754252415396073,"91":-0.011586045055928295,"92":-0.03721700023884981,"93":0.04800076361264224,"94":0.07747058924308056,"95":-0.018722773984844104,"96":-0.03137108471686346,"97":-0.004038279100447196,"98":-0.009271501231171257,"99":-0.009594455107287415,"100":0.0025484392895731138,"101":0.08299690871001407,"102":0.03664351639831544,"103":-0.04281913408534909,"104":0.013321419161445263,"105":0.06491692070620214,"106":0.03157986469938888,"107":-0.013665656002725492,"108":0.005954751825980852,"109":-0.024182560472826006,"110":0.01754457943696027,"111":0.010180500518134423,"112":-0.05040553889520119,"113":0.009406212532511081,"114":0.040540067642591174,"115":0.08697500037640657,"116":0.01728710384585321,"117":-0.06258771791105756,"118":-0.006084665010407009,"119":0.04412514599626886,"120":0.0384001771913796,"121":0.02430248417146568,"122":0.08875808057040674,"123":0.08043678485396598,"124":0.05960680240965593,"125":-0.02305278812127379,"126":0.006227535026239636,"127":0.0498345171325226,"128":0.01342832636535779,"129":-0.003403232036096476,"130":-0.03319656994117818,"131":0.060730295183721,"132":0.05725166614023943,"133":-0.011813940557561617,"134":-0.021551831365085726,"135":0.003025817727120275,"136":0.06323282149293225,"137":0.019686282875455915,"138":0.02904017803782875,"139":0.03122388175013341,"140":-0.017235750901902085,"141":0.10294797446035063,"142":0.11680146697762522,"143":0.025891424069015092,"144":0.09253876653477565,"145":-0.024301001110839014,"146":0.10795339777457194,"147":-0.033888072826006074,"148":0.021062127369443226,"149":0.05398414812036192,"150":0.006049871959906784,"151":0.018097278323093997,"152":0.031852624455851755,"153":0.01167764652664294,"154":0.07262640016631813,"155":0.03239838512274038,"156":-0.08500505413958295,"157":-0.04793332496830391,"158":0.048537413011547494,"159":0.027239421464108234,"160":-0.01564945585228958,"161":0.02647862615269709,"162":-0.0023913436765466024,"163":0.009475029080133614,"164":0.06402945013278157,"165":-0.03131490231776517,"166":-0.01854409613560731,"167":0.05430184780551263,"168":-0.07121742319800657,"169":-0.012343516109071483,"170":0.0421670504670624,"171":0.02772448131954712,"172":0.04974332253757578,"173":0.04963191829267802,"174":0.048496588827367924,"175":0.029971240424897284,"176":0.06049230444868293,"177":0.001384983989190821,"178":-0.028323157879012,"179":-0.004605891450125535,"180":-0.0058393758522969795,"181":-0.021873796310407277,"182":-0.028536209121727267,"183":0.021530665824880148,"184":0.049577332533970044,"185":-0.011286776041136704,"186":0.0036580617586624525,"187":0.008296794619475209,"188":-0.020886174536769452,"189":0.07549864541678311,"190":0.011165360329293038,"191":0.025605353285273007,"192":0.009867027706458961,"193":0.051949104352452105,"194":0.0328127633070929,"195":-0.005395489114032727,"196":-0.010377251423654494,"197":-0.008240916107861561,"198":0.03358477261731662,"199":0.09289675942451221,"200":0.019908711266472104,"201":0.023442365073164596,"202":-0.007565059613996151,"203":0.004804578900637105,"204":0.00018267930412030518,"205":0.11108285386092948,"206":-0.025793801994212332,"207":0.033893224621037436,"208":0.16415573644895062,"209":0.03128276832639677,"210":0.033981549205321274,"211":-0.003725481948354384,"212":0.0969473285690797,"213":-0.03918681350063371,"214":-0.003826455718947992,"215":0.03199083788810385,"216":0.1264336123400721,"217":0.05602876819317992,"218":0.01297585606044598,"219":-0.0003104946840650607,"220":0.03303851831444003,"221":-0.0025190765871861785,"222":0.0027727438792204983,"223":-0.018771852394836107,"224":-0.01960547996806308,"225":-0.0025681369763806555,"226":0.04245094213180125,"227":0.024079645721049935,"228":0.11228117903088776,"229":-0.006174320657506647,"230":0.045677643375436165,"231":-9.608234436481096e-7,"232":-0.024095073419877322,"233":0.03296135213418628,"234":-0.005861852956899593,"235":0.12063555593829768,"236":0.07403317681700106,"237":0.00042377640849101787,"238":0.0672545215200747,"239":0.026862804935345687,"240":0.006797257019565119,"241":0.09628341243985064,"242":0.10720733649021538,"243":-0.03155271837492267,"244":0.0013550396102822552,"245":0.043942240134378814,"246":0.027119408216479953,"247":0.005285268298054422,"248":-0.00615763303546022,"249":-0.05398178453768752,"250":0.004820227804735545,"251":0.04906037376901249,"252":0.002414590345165353,"253":0.02325270987557699,"254":0.10662964252352462,"255":-0.030820932891275143,"256":0.1150484956740215,"257":-0.031279858795118444,"258":0.056619064299139925,"259":-0.004424643582437445,"260":-0.021375475269010402,"261":0.018429587514134507,"262":0.04472165632683006,"263":-0.017906011071912132,"264":0.01734986002882884,"265":-0.08650180077072252,"266":-0.04982167778828563,"267":0.18809395536408022,"268":-0.04102692616807267,"269":0.046038444117126834,"270":0.07251988434007169,"271":0.021014673572786798,"272":0.13553507636868567,"273":0.09284592137210057,"274":0.008029433197161722,"275":0.031227802183291777,"276":-0.06341404257255688,"277":0.1151830391615058,"278":-0.019876094662428668,"279":0.07093402873996889,"280":0.05552471917304939,"281":0.08311439930037771,"282":-0.07501691240239987,"283":0.06625982509494231,"284":-0.029497801038237934,"285":0.020685134475371222,"286":0.013864331700429543,"287":0.060723925150861016,"288":-0.024977951937031045,"289":0.00037324573090579544,"290":0.025091348491959653,"291":0.05745800994925993,"292":0.05984826748175633,"293":0.028755650276808167,"294":0.08285133175124017,"295":0.037356459915396455,"296":-0.036730399366166226,"297":0.0315113711269345,"298":0.06835564396975316,"299":0.05144302790723606,"300":-0.058818555291233074,"301":0.04506112828411858,"302":0.0777043939266836,"303":-0.028611640410660843,"304":-0.021052121616685626,"305":0.07507983324952112,"306":0.03726775533355881,"307":0.04735112835667194,"308":0.03552513917187832,"309":0.046533108573825435,"310":0.032782470943835504,"311":-0.03356566188757772,"312":-0.03554311150660527,"313":-0.03136552140606066,"314":-0.03632261455378372,"315":0.0011598152113724272,"316":0.06952501810258009,"317":0.03763099454882672,"318":0.08057774090150786,"319":0.01580568726086296,"320":0.03561861052390377,"321":0.01253608961476821,"322":0.1006186839455425,"323":0.08117339055428871,"324":0.0021122690473219523,"325":0.042049518524576744,"326":-0.04296026876547386,"327":0.0009496856376436427,"328":0.03552238576626878,"329":0.04926819058625428,"330":0.03208698223498033,"331":-0.05332525042163354,"332":0.06191282893607451,"333":0.05610178371641054,"334":-0.011183901742036567,"335":0.029222721159856514,"336":-0.037476223690829945,"337":-0.035998944649127874,"338":0.044724091713386725,"339":-0.04539226061858432,"340":-0.02820675784939218,"341":0.07181947255381642,"342":-0.031000375497808454,"343":0.0024929807442597113,"344":-0.03659674105966971,"345":0.06557735846396719,"346":0.04975173568222866,"347":0.018882714100306203,"348":0.05214712965982796,"349":0.03747733568580489,"350":0.011157613514625166,"351":-0.025691670728374794,"352":0.06976191037534132,"353":0.02821278040796676,"354":0.01205978114858954,"355":0.02725555896956493,"356":0.08569710927164359,"357":0.11177580098208775,"358":0.022541518586187078,"359":0.11021721972664264,"360":0.09788162806101013,"361":0.08414226079511862,"362":-0.012182729300354491,"363":0.024200853721687163,"364":0.029956131495418408,"365":0.014596090211699534,"366":-0.02151864180071402,"367":-0.05138427447501135,"368":-0.015678862942685893,"369":0.0067144970038601984,"370":-0.0015430783834037133,"371":-0.009545259810611615,"372":0.06905014709140671,"373":-0.05696273929062203,"374":-0.08038172033149892,"375":0.053000013215965806,"376":-0.07218332465670406,"377":0.030878129850702738,"378":0.007594156007523164,"379":-0.05951633783735936,"380":0.032599356625838245,"381":-0.041594858349070084,"382":-0.023131056805508098,"383":0.04900778867474765,"384":-0.038298984285207505,"385":0.08890984744388612,"386":0.10099547229226838,"387":-0.0009632129211027784,"388":0.09270324638635523,"389":-0.03942008238831551,"390":0.04666210781773103,"391":-0.037939015722717455,"392":-0.045797838048580224,"393":-0.014755055628890935,"394":0.05006662648228768,"395":0.054046296597515774,"396":0.04035779270832781,"397":0.04553953980065692,"398":0.06973229016577058,"399":-0.007021519990183237,"400":0.0038588102532988652,"401":-0.0014912667351608417,"402":-0.05308728586872674,"403":-0.013852347302577542,"404":-0.024617946870650713,"405":0.005794857141199344,"406":-0.05443991584192861,"407":0.1022952454005816,"408":-0.06262041100174279,"409":0.02488138439904903,"410":-0.018423143821914872,"411":0.005490134885642202,"412":0.07169471330168671,"413":0.029344417267911375,"414":0.02049542367293991,"415":0.02773526744698712,"416":0.0916679636220665,"417":0.019176794639226773,"418":0.09138679743405098,"419":-0.017234558869483784}},{"sx":1,"sy":1,"depth":420,"w":{"0":-0.08074170653161128,"1":-0.1603652458934609,"2":-0.07827029206945482,"3":-0.032792169493182824,"4":-0.10041104057768545,"5":-0.14503759249748097,"6":0.04658970811493181,"7":-0.056151934539746116,"8":-0.18327360893720634,"9":-0.1420045900769307,"10":-0.052792044817920006,"11":-0.014557856616833153,"12":0.04386810404253143,"13":0.08785745169728958,"14":-0.041947104695717746,"15":0.1356106532010142,"16":-0.1012779367146834,"17":-0.01832882558840501,"18":-0.010131453564132064,"19":0.11143760338803364,"20":0.07021427657059949,"21":-0.033316816534092415,"22":-0.002976408223484102,"23":-0.04410876562960268,"24":0.047471437567691524,"25":-0.00899042443017013,"26":0.16562979293976007,"27":-0.028293801161978657,"28":-0.00515429475239578,"29":-0.09559426627983517,"30":-0.01408473378323483,"31":-0.08101482509396898,"32":-0.0600382728736944,"33":0.04808780747315404,"34":-0.053331428192428185,"35":-0.09715289573275908,"36":-0.025653447167444103,"37":-0.07862533634900366,"38":0.13879852859650724,"39":0.02617756998044585,"40":0.037360438503140095,"41":0.02278846029947572,"42":0.016931237886132978,"43":-0.1288734122165822,"44":-0.11989235945121292,"45":0.014632159824366319,"46":0.04013032227246161,"47":-0.06206923414414941,"48":-0.03814246296722026,"49":-0.04215278105969863,"50":-0.07648159570593943,"51":-0.1363796069103307,"52":0.10298435026095375,"53":-0.009275600410046957,"54":0.011769152459470496,"55":0.016271999790581724,"56":0.01612582068671843,"57":-0.08943988839062876,"58":-0.042870991289301254,"59":0.0918177067503571,"60":0.01136144986025086,"61":-0.07189705908479929,"62":0.03688252952039016,"63":0.1247156941241479,"64":0.0029298318131549404,"65":0.06304877867107106,"66":0.15586236031118753,"67":-0.007529888852416496,"68":-0.01850811019376082,"69":-0.10530717954895395,"70":0.07467466618865277,"71":-0.030375522972126846,"72":0.06379502502435357,"73":0.04676169076592472,"74":-0.0293698386790373,"75":-0.002913061111840606,"76":-0.05025067279643058,"77":0.07830983253135296,"78":-0.05960905939911422,"79":0.11715175353724426,"80":0.04419089646416537,"81":0.07122768797097609,"82":0.011707252967599634,"83":-0.09201744480564604,"84":0.020050328662602954,"85":0.09034896569223924,"86":0.048023877036289395,"87":0.08385633091104394,"88":0.16659875295143964,"89":0.08675660668446161,"90":-0.012997218317986971,"91":-0.03756601554358183,"92":0.08265047465289718,"93":0.1170141300190432,"94":0.15723160505933254,"95":-0.058779260891351756,"96":0.0313486655323443,"97":0.07470676483309707,"98":0.05476188686158781,"99":-0.014004307914263847,"100":0.05582790138843873,"101":0.18273356394936907,"102":0.14174870172024157,"103":0.06660247527739191,"104":-0.034655047969471484,"105":0.07537101224704179,"106":0.035205417519928214,"107":0.05846375095117966,"108":0.15268459959537448,"109":-0.001369182619081953,"110":0.061507543249133954,"111":0.03611735127166132,"112":0.014405974532315468,"113":0.1078214691569588,"114":-0.006926181661257662,"115":0.05699268466674706,"116":0.0939084325113717,"117":0.03281721821361862,"118":0.015663342596928954,"119":0.07009149963599545,"120":0.08870794560789763,"121":0.01845681092448762,"122":-0.01981865468722164,"123":0.04071688476923672,"124":-0.0010891590760628888,"125":0.06252821857736057,"126":-0.08574552037438726,"127":0.20890229395344911,"128":-0.06087653507765876,"129":0.1413826900811574,"130":0.08768525897478768,"131":0.12842738068901396,"132":-0.028439022256542497,"133":-0.05831229694308593,"134":0.07681898749816019,"135":0.016025036369390337,"136":0.24176632698256578,"137":0.03658391511222423,"138":0.1440666373577573,"139":0.11151094579204542,"140":0.00841970749563246,"141":0.033012153778669576,"142":0.12128522904789511,"143":0.26805485127554207,"144":0.0642644503508567,"145":-0.01325062977632591,"146":-0.06630074005703647,"147":-0.027503983598999627,"148":0.05370334095950784,"149":0.028458968275640973,"150":0.1926266047801933,"151":0.09386151258251825,"152":0.053739617798796914,"153":0.04739802040817209,"154":0.016906294738551042,"155":0.03981631144569692,"156":0.0679812074748016,"157":0.12612345808168196,"158":0.09194884448244589,"159":0.06580878493827982,"160":0.06061096492692301,"161":0.03174163861146968,"162":0.11688353176324459,"163":0.13524132039532608,"164":0.14087736368010823,"165":0.1466410443593686,"166":0.1043103739936191,"167":-0.025964702510175883,"168":0.014286108124608463,"169":0.12459527773320862,"170":0.09771530357672921,"171":0.1369658774317755,"172":-0.0378033031342736,"173":0.1890705133386438,"174":-0.07490473558149713,"175":0.009190073920177518,"176":0.16525319289995963,"177":0.0987892329128805,"178":0.06813736866195663,"179":0.0651171034783946,"180":0.08274350782566413,"181":0.054092252375178236,"182":0.01121022491299782,"183":0.038793369678100556,"184":0.046035810259219004,"185":0.17901050300233756,"186":0.18176185055570798,"187":0.04555120188084971,"188":0.0028497396741751987,"189":0.10364394362376253,"190":0.08157894511031194,"191":0.16093745249952598,"192":0.19171379806076477,"193":0.16066262599300812,"194":0.062497885944161356,"195":-0.03890882745145596,"196":0.09633157693841492,"197":-0.05960578561297562,"198":0.27473182499327103,"199":0.1873391291806036,"200":0.05753886277520773,"201":0.03196306940244132,"202":-0.015436698739600716,"203":0.008779288737647975,"204":0.015828238441529616,"205":0.12923688835012848,"206":0.3096122434286765,"207":0.09221233931397727,"208":-0.059764667592850804,"209":-0.12514700360898565,"210":-0.05467364741901115,"211":0.07942784916608389,"212":0.1695030444950739,"213":0.20509193246964907,"214":0.09572244627169714,"215":0.04734762465678158,"216":-0.03749040560131272,"217":0.07544599680527637,"218":0.047978349229232505,"219":0.13902446840878352,"220":0.09914875222241597,"221":0.002416208663764009,"222":-0.0031454511651178184,"223":-0.07727873711112913,"224":0.1479678015567894,"225":-0.033624359176503554,"226":0.17734254751779208,"227":0.06592510831058183,"228":0.0008144257837319652,"229":0.0030081724815069605,"230":0.06338903355893362,"231":0.03827742847996768,"232":0.10292861712416403,"233":0.3105995939583632,"234":0.09012664635480612,"235":0.0475751868736168,"236":0.04997700824859455,"237":0.10454805864551305,"238":0.13880099283610642,"239":0.020163828984756046,"240":0.06683924302841213,"241":-0.004911860265828279,"242":0.14258289651142686,"243":-0.0030396716332923932,"244":-0.018650435688982586,"245":-0.09337195260213298,"246":0.06610643511388564,"247":0.29733154404919115,"248":0.10058952578024766,"249":0.08225008609125001,"250":0.023550992237907464,"251":-0.15807567287441998,"252":-0.09773574553854461,"253":0.03319117013395628,"254":0.13583608955148188,"255":0.0001710780543447328,"256":0.0810898963526884,"257":-0.025952144345765916,"258":-0.18316957069115866,"259":0.03984620435399189,"260":0.11294464319990496,"261":0.1662741052144093,"262":0.03235873483363058,"263":-0.05551804956949008,"264":-0.051805088016017894,"265":-0.17089986752440128,"266":0.02187940575994613,"267":-0.03632475608875511,"268":0.1397860593701154,"269":0.029112586959071984,"270":-0.08357582161485277,"271":0.09421739318744522,"272":-0.04140820876749153,"273":-0.004000267857613421,"274":0.07974753374316106,"275":0.08036668837964865,"276":0.04879672125748592,"277":-0.12714058677148066,"278":-0.1570177249323253,"279":-0.141135315214046,"280":0.1180506682044771,"281":0.05283702132929466,"282":0.05054744157077624,"283":-0.03621493411668291,"284":-0.06204279486436658,"285":-0.07802627237213237,"286":0.035258612874841576,"287":0.19355364291342825,"288":-0.05342870488038577,"289":0.02786094574702809,"290":0.19646284942383244,"291":-0.13865337920763712,"292":0.0022935563863690565,"293":-0.03850569570979644,"294":-0.10264552201742996,"295":0.030919772939503046,"296":-0.0540638049044362,"297":0.13056020539105764,"298":-0.18292994831695725,"299":-0.017938032280631684,"300":-0.13196241124972063,"301":-0.03970195839210742,"302":-0.005907399228915089,"303":-0.12190709080367558,"304":-0.20230176814575548,"305":-0.06637070857224528,"306":-0.0559734383885091,"307":-0.10002306731418421,"308":-0.0687739652433344,"309":0.021864951894176782,"310":-0.01572322914427343,"311":-0.17711843292566187,"312":-0.07173184743545544,"313":-0.10253066950070958,"314":-0.08836955597446754,"315":-0.033270729437408234,"316":-0.10756546140496208,"317":-0.055897238819201674,"318":-0.1649682573382883,"319":-0.03290888282395977,"320":-0.03659489494584993,"321":-0.10169054861061823,"322":0.015587274608001023,"323":-0.008151134585511678,"324":-0.01464017219550222,"325":-0.21534847171291174,"326":-0.15463659922784423,"327":-0.06561962398573187,"328":-0.19877490739623815,"329":-0.024859729875822946,"330":-0.12687620972356112,"331":-0.14861353501511956,"332":-0.15048901483422678,"333":-0.06219497124635057,"334":-0.11073550464073804,"335":-0.025480173830455234,"336":0.0350520020418177,"337":-0.21359601744468498,"338":-0.10545144062252056,"339":-0.17654771093704302,"340":-0.05803560356545327,"341":-0.09930938676962732,"342":-0.029458691061952726,"343":-0.1504887921042956,"344":0.07976635514079308,"345":-0.13930729296866476,"346":-0.33549736216908965,"347":-0.0906408539124792,"348":-0.028590086531548535,"349":-0.08018586648566571,"350":-0.015772371700050157,"351":-0.08635156896207037,"352":-0.10076328783533896,"353":0.08452426263085598,"354":0.13176840259645312,"355":-0.03979391840732011,"356":-0.09738277845178468,"357":0.024536443161033164,"358":-0.09133834432922348,"359":-0.0957532395992132,"360":0.156250822048167,"361":0.10803193978306871,"362":-0.020201235537432843,"363":-0.12393727797894387,"364":0.007072821229812906,"365":0.03186167107366702,"366":-0.2192464874415091,"367":0.08545258420347394,"368":-0.04516799359411761,"369":0.07991187726519702,"370":-0.11203931694030064,"371":-0.00918902733928644,"372":-0.03186018422258298,"373":-0.3541204348582406,"374":0.07629224966014261,"375":-0.1568903426684486,"376":0.14925139573167415,"377":-0.05580227958619951,"378":0.11807456570201287,"379":-0.08219408366237888,"380":-0.2965752223366198,"381":-0.1686849734771927,"382":-0.07183700227615226,"383":0.009786381223145187,"384":-0.008743442736481106,"385":0.020311932486609424,"386":0.018011357047382496,"387":-0.18132684397692123,"388":-0.15042195002878375,"389":0.024214303182047654,"390":-0.0857728888188511,"391":-0.05976890679283828,"392":0.08249880540854776,"393":0.03298804727443143,"394":-0.10324194389636979,"395":-0.21189278641376313,"396":-0.10885264873384731,"397":-0.07560807077306682,"398":-0.06683073754567401,"399":-0.1452348354901496,"400":0.00736033590411195,"401":0.01196816124199166,"402":-0.20317843929981189,"403":0.0354578934742708,"404":0.12461055087706158,"405":0.11687719342489748,"406":0.035521490579969645,"407":0.06717098372137867,"408":-0.02019082094661716,"409":-0.3310956592121397,"410":0.1071877864122576,"411":0.02209666183427867,"412":0.08303611844974895,"413":0.026948437570785744,"414":0.006086179156818637,"415":-0.030903054496335385,"416":-0.3158441686142535,"417":0.0764933010159878,"418":0.046570893922683015,"419":-0.043622268848814885}},{"sx":1,"sy":1,"depth":420,"w":{"0":0.012351890329930858,"1":0.08463382563311872,"2":-0.036332561601544654,"3":-0.01848498916376573,"4":-0.05988605864680323,"5":-0.013405170654288166,"6":-0.0831883608700462,"7":-0.050901450103903845,"8":0.0012913066367939558,"9":0.038161004561328905,"10":-0.06658496385681778,"11":-0.07728373072223786,"12":-0.058634824573922696,"13":-0.0752365213209136,"14":-0.009129041412972168,"15":0.0016243023560467526,"16":0.004002381264785954,"17":-0.06362189572008752,"18":0.006845962820453975,"19":0.048609763913291124,"20":-0.018784649794841717,"21":0.012640944497177693,"22":-0.020606553365377242,"23":-0.0034890672546975072,"24":-0.19303582428745586,"25":0.005037978073193069,"26":0.07768191842375448,"27":-0.04673648148246566,"28":-0.07178261473230964,"29":0.022929618928654534,"30":-0.019252152355477635,"31":-0.06395920208130766,"32":0.004819081972096276,"33":-0.004804234347302314,"34":-0.05548778211963357,"35":-0.04738891572273316,"36":0.005534660534431087,"37":-0.016231445012255073,"38":-0.006414798568635305,"39":0.029476858865840432,"40":-0.03305882454312116,"41":-0.05587812296907984,"42":0.0002035096783138309,"43":-0.0005852499177401319,"44":-0.05468449679801976,"45":-0.051081364271638126,"46":0.020910352557398232,"47":0.0477291443673154,"48":0.01807156877441796,"49":-0.06142262968830366,"50":0.03978946414233323,"51":-0.008875205615822102,"52":-0.08866030204179426,"53":0.04704035900912966,"54":-0.03813796948447737,"55":0.01782341129524429,"56":0.05709054956305591,"57":0.0006474099394053258,"58":-0.03479880459694227,"59":-0.12639092708318897,"60":0.012346019925936208,"61":0.053406442050184084,"62":-0.0528343501709525,"63":-0.10056800483976261,"64":-0.03611858097403055,"65":-0.10084628006711766,"66":-0.11732450802522287,"67":-0.11207115087754353,"68":-0.04477845035827879,"69":0.006349169791560664,"70":-0.013638194149208182,"71":-0.09884713009520432,"72":-0.008627832498599282,"73":0.037411183979533004,"74":-0.1031258271225326,"75":-0.007010669245045528,"76":0.01573934497300822,"77":-0.05147580302289332,"78":0.0048094068958398585,"79":-0.04745555663629346,"80":-0.0971964924319887,"81":0.04197911786635145,"82":-0.09693847220683045,"83":-0.004898817264275752,"84":-0.032002963973600564,"85":-0.03450812297749191,"86":-0.022587580835563142,"87":-0.015471212554518303,"88":-0.028248467880218227,"89":-0.019765401031534728,"90":-0.0569576941340902,"91":0.0014530072738814098,"92":-0.01889431463959817,"93":-0.08159702196205465,"94":-0.05431187878390969,"95":0.06562066194955175,"96":-0.10803018632638034,"97":-0.022508685317039385,"98":0.017595837333617324,"99":0.09114501209200968,"100":-0.01850205003308411,"101":-0.02458825192580701,"102":0.01555412487568223,"103":0.03889393866153555,"104":0.027922046861783678,"105":-0.07450046877796687,"106":-0.005906360654218982,"107":-0.05991913494199447,"108":-0.09678631225751917,"109":-0.05234122206096733,"110":-0.06582103751261802,"111":0.01087742306853784,"112":-0.001466968635406332,"113":-0.0419686732838032,"114":-0.10373716833435959,"115":-0.027011197767833027,"116":0.018386176014837805,"117":-0.036220179706513644,"118":-0.03168149615105402,"119":0.07526201718053131,"120":-0.042724824393054174,"121":0.021981435132272343,"122":-0.04675023902791182,"123":0.02310143400244182,"124":-0.031026172174613856,"125":0.0159710444777863,"126":-0.0809446859555275,"127":-0.02511341134907403,"128":-0.05556767745599771,"129":-0.09542432864081404,"130":-0.029340492552572588,"131":-0.04202784909094369,"132":-0.11441389582420838,"133":-0.0018373895559385582,"134":-0.05985956533451526,"135":-0.03516401172519041,"136":0.0737979418072615,"137":-0.0570324882027922,"138":-0.026541267944978443,"139":-0.0437022025374092,"140":-0.03467998201293767,"141":-0.048283594589966734,"142":0.0394092700603597,"143":-0.07818596115312136,"144":-0.001358054365720182,"145":0.013808454556440182,"146":0.02899477519855942,"147":0.016808822451369124,"148":0.05968548869918832,"149":-0.03965983690056342,"150":-0.09397041832372542,"151":-0.022748513682052437,"152":0.05130048450396291,"153":0.13612769512910008,"154":0.05779643941152439,"155":-0.006555916945491219,"156":0.05191678391687516,"157":-0.015349951847529375,"158":0.011633518626308173,"159":-0.06707192014029746,"160":-0.0300736720677034,"161":-0.00774725931214768,"162":-0.04177898271320542,"163":-0.0686750242780289,"164":-0.09534476950207614,"165":0.021585164987279932,"166":0.028829211739598196,"167":-0.04844323468116988,"168":0.06892711169135625,"169":0.008476502310678672,"170":0.022487868872650165,"171":-0.06112713220754749,"172":-0.044054453472499776,"173":0.013723811389684232,"174":-0.07006125208933524,"175":-0.08249509288340083,"176":-0.12340249039259683,"177":-0.031679077626869015,"178":-0.08725956856497212,"179":-0.04918667312952863,"180":-0.008312170833369744,"181":0.008805366065036204,"182":-0.025142713554890957,"183":-0.03180609259735051,"184":0.005465839442060045,"185":-0.06760517739495357,"186":0.0038652827925774423,"187":-0.0349991068841744,"188":-0.02089481520637132,"189":-0.047800467455421845,"190":0.04208244085749858,"191":0.06016481030242782,"192":0.01399327425479876,"193":-0.04179802090256502,"194":0.06727471049341553,"195":-0.007339703572978315,"196":-0.14041974434855956,"197":-0.06009503162907765,"198":-0.007462108683969046,"199":-0.05052458265241597,"200":-0.024498109113835466,"201":-0.024672828702320876,"202":-0.03425439242866693,"203":0.04838730913751133,"204":-0.018601334722446877,"205":0.002725971044710295,"206":-0.0393998103378789,"207":-0.032385469402144214,"208":-0.03962895865833167,"209":-0.03656724899496727,"210":-0.026578259894169523,"211":-0.05559290109501711,"212":-0.06459181299452874,"213":-0.03359359209997667,"214":-0.03293304262174964,"215":-0.018827137673756284,"216":-0.00635151174966423,"217":-0.08271025164029037,"218":0.024909463504825383,"219":-0.00018925138374534836,"220":-0.05895709686962176,"221":0.021194035277808956,"222":0.005467806577273634,"223":0.03430753935888626,"224":-0.09165916608043635,"225":-0.013171246495061755,"226":-0.024448213482301397,"227":-0.030104119900497335,"228":-0.03857480578629328,"229":0.032545286227372995,"230":0.03342557830897989,"231":-0.05989782127627436,"232":0.012561348181592023,"233":0.016364762031355697,"234":-0.01206300878831175,"235":0.015333274262627742,"236":-0.03962720306902024,"237":0.023361369958850183,"238":-0.035782379186806546,"239":-0.0025106935183786708,"240":-0.021548564571568438,"241":-0.013051271388434428,"242":-0.0816760209936924,"243":-0.03330866994694397,"244":0.03096889456925342,"245":0.041786500143532024,"246":-0.09696425798232769,"247":-0.00805154638930984,"248":-0.06346435003797478,"249":0.02064423293103136,"250":-0.08454647176881602,"251":0.04400429216042236,"252":-0.016110568345219508,"253":0.03494094344171175,"254":0.05555544761800653,"255":-0.057716207708454245,"256":-0.04395759081907789,"257":0.024985055548082304,"258":0.001996320070547017,"259":-0.05772678969713737,"260":-0.01702336475362107,"261":0.0010416418935707587,"262":-0.06883873526126057,"263":-0.023784036332398357,"264":-0.1089037104246556,"265":-0.11059525285185687,"266":0.0325921586543775,"267":-0.040013949492795374,"268":0.00947343751544841,"269":0.04383847790844523,"270":-0.04947036691361397,"271":-0.014860626069524426,"272":-0.06371268887263465,"273":-0.0939328777067946,"274":-0.031506694832852525,"275":-0.03840558738468127,"276":-0.06572437783095768,"277":-0.010494032395656177,"278":0.030286349155558133,"279":0.12200517006300013,"280":-0.04345013345060803,"281":0.015157179162767289,"282":-0.057838608801762795,"283":0.03473972335562332,"284":0.062298537237021084,"285":-0.0034489220768162223,"286":-0.04135335042350816,"287":-0.034385853270244175,"288":0.007375107606580645,"289":-0.04231336441001918,"290":-0.07964137194899064,"291":0.02178416605822955,"292":-0.05094881399722218,"293":-0.011768551521249396,"294":-0.006891247329698807,"295":-0.05576512227673596,"296":0.00021649222744905927,"297":-0.09015213839996808,"298":0.009840153630874478,"299":0.10458483024031814,"300":-0.03168037188408379,"301":-0.03448551621137358,"302":0.01629984662743299,"303":-0.025027868138229277,"304":0.06208538818622566,"305":0.015097082975142721,"306":0.0005152918570618996,"307":-0.007076278133291697,"308":-0.03140876784820913,"309":-0.03333045527944828,"310":-0.09127552653513486,"311":0.03909631031106323,"312":0.02367465170509574,"313":-0.04166162458532974,"314":-0.017821399172584046,"315":-0.1109690990511242,"316":-0.10220391887244958,"317":0.07020896379707092,"318":-0.014257935706899342,"319":0.012637332447888132,"320":-0.0269155305523792,"321":-0.049663454709852735,"322":0.0006608817308433481,"323":-0.058720556872977815,"324":-0.07622087219133253,"325":0.010665302196761874,"326":-0.046338534666656404,"327":-0.03556099823902765,"328":-0.010330882993255283,"329":0.0009263443182104932,"330":0.013225616964160523,"331":-0.0036650311439350037,"332":0.045441219929260646,"333":-0.0752545406507527,"334":-0.03854764900093626,"335":0.03256248904955183,"336":0.012079635010058263,"337":0.053538467449293824,"338":-0.018074762411797334,"339":-0.007450352275162796,"340":0.01673986905742918,"341":-0.07064623699708353,"342":0.10987243327906612,"343":0.03586433782366073,"344":-0.007376655919313927,"345":-0.15298514707776095,"346":-0.07922442035630747,"347":-0.11960190409924956,"348":-0.03517760326724746,"349":0.004768514703279072,"350":0.04261786255507456,"351":-0.009251873394886461,"352":-0.04192648137965366,"353":0.016758482466808618,"354":0.0768824955174825,"355":-0.0013033692228881595,"356":0.008202628130926926,"357":-0.06551457834175159,"358":0.0135386818447872,"359":0.023841121886529416,"360":0.008474704646559169,"361":-0.025490435327173634,"362":-0.09324305806187431,"363":-0.021957909571168242,"364":-0.04571262314128817,"365":-0.01993628049122209,"366":0.02765408376573216,"367":0.013834464923474179,"368":-0.03675265306617056,"369":0.015364329457648693,"370":-0.014224299759609331,"371":0.03735043230502121,"372":-0.01069421465040757,"373":0.1240879926844419,"374":-0.03149382422063005,"375":-0.021924509470986172,"376":-0.036681021031192626,"377":0.021079756064427073,"378":-0.01688166221019193,"379":0.010810930830675637,"380":0.019117458144913505,"381":-0.024241307512348046,"382":0.03281785580140945,"383":-0.05598533446064162,"384":-0.012266636158445867,"385":-0.029106953479121386,"386":0.02572965107496219,"387":0.0005286680149826856,"388":0.02824868082966341,"389":-0.06456999409236071,"390":0.012962064884424874,"391":-0.04928476992336764,"392":0.052941394952255326,"393":0.07495083419356846,"394":-0.09794727864859046,"395":-0.05683974750994985,"396":-0.041201604073131025,"397":-0.0567670654634721,"398":0.006006507765418564,"399":0.0061757860186366035,"400":0.04436565405759994,"401":-0.08403912575813115,"402":-0.005832531194095531,"403":-0.07726234719010788,"404":0.0540585212015909,"405":0.028071481055914137,"406":0.03101268545602617,"407":0.054711333860915416,"408":-0.022016818008182053,"409":-0.03121188335938207,"410":-0.13046775372397706,"411":-0.039871906209040735,"412":-0.04018605388255634,"413":-0.058174326729256425,"414":-0.04605518101505966,"415":0.07461638123352025,"416":-0.07042610664860617,"417":-0.05727118713881136,"418":-0.08484116782943452,"419":0.047548543609352706}},{"sx":1,"sy":1,"depth":420,"w":{"0":-0.047700561114641944,"1":0.16602186330906146,"2":-0.023320410275209563,"3":0.08304292400446554,"4":-0.08030298568292475,"5":0.09613387493028445,"6":-0.059777539632121936,"7":0.09407083735383513,"8":-0.016036778444215104,"9":-0.04635416865166387,"10":-0.0761691290330385,"11":-0.05647599837694537,"12":0.13692864630394938,"13":-0.09485031033939156,"14":-0.008109167887177084,"15":-0.21932169384583283,"16":-0.04157711437131638,"17":-0.25277992751870343,"18":-0.02684489041574172,"19":0.06396603461101066,"20":-0.10150271617848329,"21":0.03332365668723128,"22":0.062101984840029,"23":-0.10756398997217334,"24":-0.033643639675023804,"25":-0.02817460591538887,"26":-0.03814154976828424,"27":-0.017440857587681304,"28":-0.08428027191498907,"29":0.08288394245469807,"30":-0.028867138085711334,"31":0.04430228398502695,"32":-0.0413525315710045,"33":-0.07331614432605522,"34":-0.16744925088274612,"35":-0.08639858738367488,"36":0.2273299962803136,"37":0.07157269516738363,"38":0.07148005740702222,"39":-0.029881744221627593,"40":-0.02782297906006091,"41":-0.11321123919417445,"42":-0.0013370672837750791,"43":0.30433410087758134,"44":0.03338656061176731,"45":-0.02888262894430342,"46":-0.004882753267777024,"47":-0.03498829002347062,"48":0.05528885975197107,"49":0.1363128071806121,"50":0.008498695460705245,"51":-0.0640045682835103,"52":0.01722621054506181,"53":-0.23744060011508272,"54":-0.03916060533451608,"55":-0.02957240396849297,"56":-0.06331598193843097,"57":-0.022483000349786647,"58":-0.20998156631249754,"59":0.017942788055804085,"60":-0.14541833795408723,"61":-0.11518607418647503,"62":-0.04629390885774942,"63":-0.026718460018358318,"64":0.05469591780349834,"65":0.016683236648486893,"66":-0.0960377007301076,"67":-0.12882997404981056,"68":0.012330118260366164,"69":-0.05894072127183257,"70":-0.011223671242416909,"71":-0.10994941022944336,"72":-0.1597710769925144,"73":0.059582972754269214,"74":-0.030781666401416857,"75":0.06780053524754345,"76":-0.040638413797349074,"77":-0.04134950029481426,"78":0.020704366519024825,"79":0.14962731222007603,"80":0.19387948377342062,"81":0.0570321779539548,"82":0.0036391150939493674,"83":0.020966064869547177,"84":0.04041326562615268,"85":-0.08446466221064411,"86":0.043175597227371125,"87":0.13642143594429126,"88":0.043786882297409825,"89":0.022940312195838457,"90":-0.09830685886587572,"91":0.07002586899850802,"92":-0.21186619986490446,"93":-0.13870456136175857,"94":0.2442777136688171,"95":0.10062642322195336,"96":-0.15068692541643267,"97":-0.15725827520265473,"98":0.034942130478713744,"99":-0.026428867339513665,"100":0.05071543624817591,"101":0.07331488863805782,"102":0.1241756159585748,"103":0.0010677571416506065,"104":-0.05268621794618272,"105":0.0033074083347295934,"106":0.000333519452273487,"107":-0.0789984219642883,"108":0.059747767594249546,"109":0.08777523194355326,"110":-0.0044915803381661255,"111":-0.048655150654044216,"112":-0.24083866468268536,"113":0.021580482262835637,"114":0.017514689248908023,"115":0.02937893959371352,"116":0.18643640384968754,"117":-0.05575214161042263,"118":0.005068295956179402,"119":0.023183944743726034,"120":-0.06875053127036819,"121":0.026477250924363507,"122":-0.05093580152200824,"123":-0.004528625636020049,"124":-0.01594848239205989,"125":-0.06787334416676198,"126":-0.06990195446080305,"127":-0.020875603775965493,"128":0.14993963045171366,"129":-0.006808465904471193,"130":-0.14285900089059841,"131":-0.02654887379435229,"132":0.028183740514587167,"133":0.040106705330080455,"134":0.1319330894747889,"135":0.15771185508863397,"136":-0.013629898596333416,"137":-0.044132294152098156,"138":0.15730562723846708,"139":0.08102714792400964,"140":0.21192664528141159,"141":0.19019879856190489,"142":0.1564471761739076,"143":0.1744229678992065,"144":-0.2211641815508139,"145":0.3057933031973263,"146":-0.10321429943513076,"147":-0.06415249988525021,"148":0.20601965216827417,"149":0.24183404066895736,"150":0.23628472802448755,"151":-0.22710718108667485,"152":0.2322024183323902,"153":-0.038759553637215574,"154":-0.08438332033421495,"155":0.14004217760398158,"156":0.24777625690753485,"157":0.07428713010999431,"158":0.09341079190476459,"159":0.2645828164027225,"160":-0.021091772488032418,"161":-0.07379907159614234,"162":0.11158896647997052,"163":0.10334335763525196,"164":0.05993169574970294,"165":0.11406793389225019,"166":0.25646958364825945,"167":-0.10427865283561132,"168":-0.15857736294696614,"169":0.05206062451247837,"170":0.18030478096128938,"171":0.11061763400018305,"172":0.21076261934839663,"173":0.10314061908841053,"174":-0.0830169508175402,"175":-0.12256018661768947,"176":-0.1823859567670491,"177":0.24022867776520032,"178":0.12441196096604917,"179":0.11212434043025155,"180":-0.01757984931573265,"181":-0.20862957703221874,"182":-0.23461836800547167,"183":-0.11541704742000443,"184":0.2872060343269658,"185":0.05595133859325662,"186":0.0710077342259762,"187":-0.09273830204086178,"188":-0.15262475439507225,"189":-0.07393185536432305,"190":0.01662497556371388,"191":0.0523460814141689,"192":0.3684282791771985,"193":0.01810651452691833,"194":-0.10344522153811087,"195":-0.051746384506041396,"196":-0.12302336931122322,"197":0.01575669761210589,"198":0.20782541600785803,"199":0.25426263108049824,"200":0.0006188689486353192,"201":0.021669680632867998,"202":-0.06736436806957874,"203":-0.032521991480802905,"204":0.08281269259990434,"205":0.3262296103959861,"206":-0.018477467502173894,"207":0.19118643413163747,"208":0.03588095453917027,"209":0.023456942384623952,"210":0.03782131294665078,"211":0.0346250196015766,"212":0.13194453761382754,"213":0.1251686261908952,"214":0.01673201245076967,"215":0.036215642436003025,"216":0.04839574508712212,"217":0.18792222435261063,"218":-0.010043917009426074,"219":0.2590865979663527,"220":-0.21518713599003944,"221":0.0386134505903075,"222":-0.0468898399007317,"223":-0.1529120248772549,"224":0.06781036351661175,"225":-0.11882839972843985,"226":0.10738478376165388,"227":-0.018420650919634414,"228":0.08944357976605766,"229":-0.002045996777024692,"230":-0.08718833484450798,"231":0.08757068978189336,"232":0.00043823911817997296,"233":0.13212478062870903,"234":0.10589863298458856,"235":0.14668984930915363,"236":0.012233461587180762,"237":0.0004733154317895843,"238":0.10313149847877992,"239":0.06588259863807773,"240":0.12335559485405691,"241":0.07341119130905978,"242":0.08598934640535419,"243":0.13654373147338542,"244":-0.034581046705199806,"245":-0.13994454590655167,"246":-0.038577711259098486,"247":0.04377889995164608,"248":-0.07697014971570561,"249":-0.052676826917566706,"250":0.0209368456438694,"251":0.08302629881823642,"252":-0.020820822526305127,"253":-0.22266515406962173,"254":-0.021352101255039085,"255":-0.2475598335523857,"256":0.02186626818444089,"257":0.15901945533693562,"258":0.10918749265076513,"259":-0.3066729333355787,"260":-0.24824936406032475,"261":0.11155568229671334,"262":-0.1597149947952598,"263":-0.06271732348136937,"264":0.35614605211953565,"265":0.08026801149215358,"266":-0.14351817795316188,"267":-0.10239991836565285,"268":0.24994914903454019,"269":-0.26995057115140025,"270":-0.1473015966174579,"271":0.11803548175453432,"272":0.02566423278246774,"273":-0.010217551316549854,"274":-0.054927335044820544,"275":0.11628679440793585,"276":-0.2153335386290032,"277":0.02523667946949854,"278":0.15424274849420547,"279":0.019867827776436146,"280":-0.11749424286901153,"281":-0.06146156136268498,"282":0.11682652945577825,"283":-0.22378519140815217,"284":-0.168752232718481,"285":0.3181195835575717,"286":0.02713144000957699,"287":0.0035918324398284632,"288":0.0017143689581298614,"289":-0.06818003679925404,"290":-0.3268214083730517,"291":-0.22952799932607792,"292":0.21423026400009013,"293":-0.023410448601606324,"294":-0.030584214622277953,"295":0.0059653185131872365,"296":-0.14467418057157141,"297":-0.11782212891954433,"298":-0.13644333477836007,"299":0.13060828551277096,"300":-0.028287318374533386,"301":-0.10685125813773105,"302":0.16515596057643997,"303":-0.18410713202455184,"304":0.1694266572261001,"305":-0.3831239938577311,"306":0.17447595062900684,"307":-0.014424383043920108,"308":-0.13648208052400645,"309":0.27187881151717724,"310":0.06460136667797813,"311":0.23669135802645574,"312":-0.16981998330009215,"313":0.0408100948418268,"314":0.07960655106127865,"315":-0.11171792219146447,"316":0.05472783003595479,"317":0.05208029648064969,"318":0.27486257241800477,"319":-0.11594884154147835,"320":0.06277343371634846,"321":0.09865838958947061,"322":-0.02723876587622345,"323":-0.10632417980560718,"324":-0.04911834995521011,"325":0.1977478590317777,"326":-0.02953907437983516,"327":0.09643088820579115,"328":0.1206990183686805,"329":0.11018585160999159,"330":-0.21889390863012775,"331":-0.0905853912905046,"332":-0.07059996058184177,"333":0.006954814804326851,"334":0.12016348218349691,"335":0.18600546755945266,"336":-0.030124001521857003,"337":-0.19741009625334457,"338":-0.043508740363757376,"339":-0.3632333383474072,"340":0.039743475316527985,"341":0.08054935900946122,"342":0.1577037210760491,"343":-0.03140019367691726,"344":-0.008906917445864996,"345":-0.1138131994691605,"346":-0.24395282250508438,"347":0.09515206471989018,"348":0.024926126110766642,"349":0.016639180276295334,"350":0.06941858019882782,"351":0.16859640629866982,"352":-0.11010815334237917,"353":0.11454984606372136,"354":-0.2839577311840749,"355":-0.06739426915873431,"356":0.03526172125659057,"357":-0.059324848065272065,"358":0.18626535218622806,"359":0.02859403071389762,"360":0.07113235475964795,"361":0.0671260359764373,"362":-0.04277723413895739,"363":0.053944179296139705,"364":-0.028640913117889605,"365":0.27908822643727477,"366":-0.11958010119421277,"367":0.15728824374821423,"368":0.07181446486019251,"369":-0.11829630404848625,"370":0.08524739249944861,"371":-0.026059589379462535,"372":0.26667299348222206,"373":0.13860957953393213,"374":0.17520702036758098,"375":0.32830858521020506,"376":-0.026137434965064224,"377":0.09376837294928639,"378":-0.076740005963865,"379":0.1306047563411104,"380":0.11814435193808358,"381":-0.17353723193482626,"382":0.35356396672791657,"383":-0.02970180976536407,"384":-0.014468213765883822,"385":-0.1888503647287319,"386":0.1664815603637778,"387":0.09977456781372912,"388":-0.16462315678151232,"389":0.4587910793713698,"390":-0.24502734640085705,"391":0.04373084716989152,"392":-0.1786054235344005,"393":-0.038467607356118524,"394":0.014810924109035933,"395":-0.20263514703616078,"396":0.5039435865063353,"397":0.12965894956925791,"398":-0.08526873397182655,"399":-0.05368335997531553,"400":-0.04975318750227997,"401":0.045960534897996036,"402":0.2893485784366506,"403":0.14208567832108332,"404":0.008554425541797231,"405":-0.09175410886364044,"406":0.15572607575411201,"407":-0.009893988234311717,"408":0.024674402112889852,"409":0.41621786497248,"410":0.11941241430724596,"411":0.09817958149918579,"412":-0.1207441079559885,"413":0.0842200731000864,"414":-0.19241190094382055,"415":-0.2149476849433518,"416":0.7422655876580878,"417":0.1724494701631834,"418":-0.03368958208094669,"419":0.11107764495501418}},{"sx":1,"sy":1,"depth":420,"w":{"0":-0.15577555530294213,"1":-0.08094351437626844,"2":0.013266107120268652,"3":-0.07936427013995336,"4":0.034351362630980944,"5":0.25772042390199623,"6":0.10558365477173594,"7":-0.01362436685175747,"8":0.0815271704412825,"9":0.15194771220006006,"10":-0.032259905328393054,"11":-0.036075203888543135,"12":-0.09714888768542691,"13":-0.009016921439921494,"14":-0.03674845690734135,"15":-0.05570729863780863,"16":0.09370570083540937,"17":0.0291982109728964,"18":-0.17582849432104003,"19":0.07129703780975505,"20":-0.029370416165712773,"21":-0.1992945129077708,"22":0.1445039484636577,"23":-0.13058266779240627,"24":-0.16705337798793757,"25":0.09112385322422245,"26":0.10963829547683987,"27":-0.13936272416608392,"28":-0.10786424542446503,"29":-0.00847394494811091,"30":0.14717893664527273,"31":-0.07119572988153615,"32":-0.03392647279584474,"33":0.010408324475140087,"34":-0.11926998385173478,"35":-0.21379294859273695,"36":-0.04223157007894413,"37":0.009542362151421189,"38":0.02643339182748431,"39":-0.1529740974200501,"40":0.02240115108916099,"41":-0.15588107210605204,"42":-0.232161353669996,"43":0.06882728268655872,"44":0.032931486248583816,"45":-0.02120108704388721,"46":0.031687300008605104,"47":-0.08171323178382402,"48":-0.029256566094558227,"49":-0.2332375993800848,"50":0.1570346993167134,"51":0.07821872742084132,"52":-0.014233828204075481,"53":-0.04387324788632487,"54":0.005947816851083715,"55":-0.05195508884701551,"56":-0.3287786089843676,"57":0.13711790798065332,"58":-0.11714741951061607,"59":-0.05195674821094917,"60":-0.09813590978314207,"61":0.03351883768690533,"62":0.03319504268083779,"63":-0.070969812447446,"64":-0.053154357701336974,"65":-0.07877913920686506,"66":-0.09000062213291322,"67":0.03470178524675144,"68":0.020634070442199257,"69":0.04097182769057196,"70":-0.2036814313491768,"71":-0.05708667637479566,"72":-0.052397008076128994,"73":0.05588181707775156,"74":0.05905564463146046,"75":0.09911862141162411,"76":0.19463917580745013,"77":-0.14942984083313474,"78":-0.16919351369764388,"79":-0.09748431702453585,"80":-0.053802238059154725,"81":0.07628046616662872,"82":0.07474392616604306,"83":0.1553439692734819,"84":-0.19788309286229797,"85":-0.17743173744334667,"86":0.019577988523383296,"87":-0.16158697120795626,"88":0.15970378126521692,"89":0.08271738381281594,"90":0.016744793815168104,"91":-0.21226953152539252,"92":-0.01714201022505123,"93":-0.008742319466178325,"94":-0.10874903737656344,"95":0.09529404102844659,"96":0.0018588270972743173,"97":-0.03205279528994208,"98":-0.14879664533861636,"99":0.052179369194606036,"100":-0.03627465503280609,"101":-0.07818337775359632,"102":0.06962782678759492,"103":-0.041854903293023306,"104":0.147579777879983,"105":-0.055610354348395535,"106":0.20938440155624585,"107":-0.030756219118063772,"108":-0.15302531466333313,"109":0.06315401836440457,"110":0.013900502424823671,"111":0.1394160908462079,"112":0.08380554335696576,"113":0.07345201487180213,"114":-0.00745931829314664,"115":0.011581517169123009,"116":0.10708501832980014,"117":0.07340908036393759,"118":0.1654862629458761,"119":0.09162697586055533,"120":0.1359291595556685,"121":0.03310232200074908,"122":0.01961285522254169,"123":0.14925067478497644,"124":0.07021401514794103,"125":0.25432805351894183,"126":0.05942103943334123,"127":0.034216800140438826,"128":0.07448537115647363,"129":0.0799060452294648,"130":0.13111761718812567,"131":0.04255898141676712,"132":0.09105879408352327,"133":-0.10784796188291207,"134":0.059099479742559045,"135":-0.011086119536558303,"136":-0.04385915768256698,"137":-0.06781636550760903,"138":-0.1407465607680302,"139":0.045870864072360955,"140":-0.12352270131144098,"141":0.06106362416961079,"142":-0.133628317332851,"143":0.061217835965656706,"144":-0.1180042060159342,"145":-0.07074875601570554,"146":-0.0623163291078265,"147":-0.05795693936581008,"148":0.06459373175341482,"149":-0.07112131120855508,"150":0.08968952167342571,"151":-0.05499154771701188,"152":0.09162829983034974,"153":-0.07606349100718882,"154":-0.2370627429917123,"155":0.0011799599651738648,"156":-0.16741532973682674,"157":0.10457101756632885,"158":-0.161821926995788,"159":0.01777033845460583,"160":-0.16774431383996435,"161":-0.2465337002529732,"162":-0.10031407200053243,"163":-0.026589009335486306,"164":-0.002706672222630498,"165":0.04270910376327998,"166":-0.09786062475884134,"167":-0.2697227456461524,"168":-0.07344035875234735,"169":-0.05923530705545622,"170":-0.14020103198032272,"171":0.011695630289688428,"172":0.05641650764776963,"173":-0.1495660777501049,"174":-0.1756049126233046,"175":-0.18914536546720517,"176":0.01277143477807699,"177":-0.1587493814881544,"178":0.03723150525466989,"179":-0.07423334339819576,"180":-0.12543902754565053,"181":-0.0253681976039715,"182":-0.013795273219096607,"183":0.008539590073362857,"184":-0.23597961905817133,"185":0.012967288159845316,"186":0.1615655288530108,"187":-0.22353673609263355,"188":0.10901252334652574,"189":-0.07210579673081191,"190":-0.05324051706230603,"191":-0.011060198606312388,"192":-0.010775828577701301,"193":-0.019217388939065258,"194":0.027644817789602257,"195":-0.0161638723768017,"196":-0.05391617939092152,"197":0.05788300415238437,"198":0.06760088399752255,"199":0.044906952533968286,"200":0.07287878600162338,"201":0.039473465461331195,"202":-0.14295466318903524,"203":0.035189892890079594,"204":-0.1689903942154312,"205":-0.06018788487588038,"206":0.16243489158037425,"207":-0.048801119946144486,"208":0.008692679261435039,"209":-0.10667013954116282,"210":0.03328288681749716,"211":0.045825062762408775,"212":-0.18595219748335873,"213":-0.06291425988255087,"214":-0.019052437094686858,"215":-0.003931528475329913,"216":-0.04430106611845351,"217":-0.1989795854262715,"218":0.0013020987690669059,"219":-0.11507048057160045,"220":0.05503783640782732,"221":0.08928219311860798,"222":-0.11819285457773064,"223":-0.010573731752978871,"224":-0.06333087018392732,"225":-0.0890296115134643,"226":-0.07706101500723915,"227":-0.008238687458165299,"228":-0.09900178686378207,"229":0.04717782940949905,"230":0.02440131565022421,"231":-0.0750995071866739,"232":-0.08277853831297934,"233":-0.10851899263856439,"234":-0.22601526401543354,"235":-0.05693216660125978,"236":-0.008445888571705822,"237":-0.018759700506722217,"238":-0.10173252585024271,"239":0.015962049338574275,"240":-0.14979602071384712,"241":-0.060388427200956885,"242":0.008182275626294044,"243":0.01396344552335852,"244":-0.12129805118849289,"245":0.15058306526375864,"246":0.07413845176969339,"247":-0.002389658209391001,"248":-0.04143677187252369,"249":-0.20083389229507886,"250":0.03264039021394609,"251":0.09994457633193181,"252":0.06518865314535625,"253":0.015255110930500656,"254":-0.0006525835331640971,"255":0.014604587552447834,"256":-0.051447447306431034,"257":-0.0942242607065794,"258":-0.056815327036643416,"259":-0.03988486889568263,"260":0.08813549555801646,"261":-0.04626621097705656,"262":0.06948862254461668,"263":-0.127902406404936,"264":0.07336628114323267,"265":-0.02417998061155956,"266":0.05235958201318583,"267":-0.04195416845349006,"268":-0.02600659713576953,"269":0.1297013113452971,"270":-0.17417497666403922,"271":0.02681106363934056,"272":0.03519048306262031,"273":-0.11570162168774815,"274":0.16887211158554663,"275":0.143525748787895,"276":0.4057715979647371,"277":-0.13763738165830214,"278":0.2203045547488301,"279":-0.004321047190981042,"280":-0.019371741387307753,"281":0.045921104403146264,"282":-0.052241137978105985,"283":0.048261243149585756,"284":-0.2510917402903727,"285":0.02949647446765133,"286":0.04182546716593272,"287":-0.32185101243181846,"288":-0.057207699572795964,"289":0.19644699105926156,"290":0.28270677411996126,"291":-0.24359053482912776,"292":0.0694718123563286,"293":0.06937859498417895,"294":-0.12690531054754106,"295":0.014198019868351518,"296":0.2708599267235523,"297":0.3195445119500951,"298":-0.08911908140427988,"299":0.15505581298978585,"300":0.0364691103508326,"301":-0.15329084602026283,"302":0.05689324516040595,"303":0.2806941032537343,"304":0.46863904882243995,"305":-0.3267302641130495,"306":-0.15837875758507278,"307":0.14286738610197516,"308":-0.00905869381357121,"309":0.18999879598763897,"310":0.2522797512511441,"311":0.5173786329407691,"312":-0.2768393139067532,"313":-0.1268489467607135,"314":0.1530748670590831,"315":0.061732296977436124,"316":0.05197390592022865,"317":0.28357513158829467,"318":0.5100414121865339,"319":-0.20281150229400388,"320":-0.19223160976803758,"321":0.1773267932799745,"322":-0.05652692386720304,"323":0.021764249986494563,"324":0.42251101295812465,"325":0.5798568365257434,"326":-0.2811190898102972,"327":-0.01295705432724436,"328":0.09617768716939992,"329":0.056120731773255786,"330":0.07891622498686368,"331":0.3560928717245731,"332":0.16147939790666085,"333":-0.2147353253053007,"334":0.08003004108638045,"335":0.01471006239741066,"336":-0.10838725167942068,"337":-0.13601749157199938,"338":0.42867210259117444,"339":0.07832639055856842,"340":-0.17882668092738055,"341":0.1353792849895452,"342":0.2061001311997674,"343":0.14913104578838854,"344":0.006897427365381477,"345":0.44223069199377124,"346":-0.09638327660811068,"347":-0.36864294769108097,"348":0.006753987640668628,"349":0.14052586099784792,"350":0.22958131794428682,"351":0.022120624101356574,"352":0.39311285748044783,"353":-0.032953648280015645,"354":-0.32853067818933085,"355":-0.01738920227598487,"356":0.15584095702596226,"357":0.010072506568824352,"358":0.01926097579275297,"359":0.18360265912110793,"360":-0.033028600626854906,"361":-0.1340982412618728,"362":-0.07138186057084814,"363":-0.0127734827385565,"364":-0.022187179078678065,"365":0.13328116763064388,"366":0.531066174964976,"367":-0.0625323535018045,"368":0.0056123862392717175,"369":0.06340308478061255,"370":-0.08027106469779186,"371":0.17446336101398768,"372":-0.018691280096395816,"373":0.4329578618247221,"374":-0.044398426374208676,"375":0.032130148930688864,"376":0.014132148496568455,"377":-0.054788315800080714,"378":-0.007871036159782536,"379":-0.023924543724812227,"380":0.3046360768050093,"381":-0.13699548698315606,"382":-0.01428030546610754,"383":0.03407860677837956,"384":0.10320944330167851,"385":0.054487770739025,"386":0.019916465903566195,"387":0.04581657174413825,"388":-0.04714472430261137,"389":0.041692031479852905,"390":0.004073130733513634,"391":0.09069014199728086,"392":0.24836224655729064,"393":0.0122916148771891,"394":-0.08350045694453606,"395":-0.005563548988452518,"396":-0.16377955621443016,"397":0.0263143411702671,"398":0.04351181180898109,"399":0.19342919955398266,"400":0.11166352935387154,"401":0.19895826459671628,"402":0.16071859010164594,"403":-0.22375304424423106,"404":0.06886058888169451,"405":-0.038147682420333145,"406":0.39576985895364786,"407":0.1359680912174953,"408":0.05351591848869887,"409":0.22355101174816727,"410":-0.15754195675321073,"411":0.1124009995804574,"412":-0.11410309456046037,"413":0.10116387410271785,"414":0.09414438287811923,"415":0.30757182319645837,"416":0.23416440737974822,"417":0.0024257300029444195,"418":0.1253337543585662,"419":-0.04671024204775365}},{"sx":1,"sy":1,"depth":420,"w":{"0":-0.07425199056048552,"1":-0.035366788809902,"2":-0.07221386181530055,"3":-0.03881749482549793,"4":0.1053510875983509,"5":0.04438926846100287,"6":0.02011544897212826,"7":-0.028151064012143987,"8":0.042956367711490764,"9":-0.16128022686689186,"10":-0.1119547010340939,"11":-0.1048138620262504,"12":0.1191906894304681,"13":-0.014379475337677644,"14":0.04393334658375144,"15":-0.00932105671656992,"16":-0.1594912267869712,"17":-0.12662305247353778,"18":-0.11348027483345526,"19":-0.052008403547662646,"20":0.030686455081695863,"21":-0.04342969396178467,"22":-0.028051766667885638,"23":-0.09072500876098098,"24":-0.03754900733673311,"25":-0.055495299491472166,"26":0.032261290024237894,"27":0.061317225398896134,"28":-0.06333359999172403,"29":-0.12068356833626301,"30":-0.07581628541375801,"31":-0.0781276989630859,"32":-0.1556630173595377,"33":0.043092448585148914,"34":-0.022981165040830333,"35":-0.00895718948059321,"36":-0.1292594641961133,"37":-0.13294744739342929,"38":-0.11059356389221064,"39":-0.09709079623930643,"40":0.08974364311788426,"41":0.13011114658869785,"42":-0.10191162953943017,"43":-0.12761888519704406,"44":-0.0689981108204198,"45":-0.04271452958621041,"46":-0.0827396353927028,"47":0.06743509016301638,"48":0.019933427635028648,"49":0.039295507150092425,"50":-0.04012245682666079,"51":-0.09637201119598429,"52":-0.11008864122101794,"53":-0.08437122543741193,"54":0.05404611990203867,"55":0.044196011039056175,"56":-0.007483159974987535,"57":-0.10931300593608195,"58":-0.17795127371678368,"59":-0.16192626672089555,"60":-0.07990318564261287,"61":0.057734883447421656,"62":0.0218060932162497,"63":0.024817551923373687,"64":-0.12352355980590304,"65":-0.20893918617816945,"66":-0.11954133029532031,"67":0.006165332321926848,"68":0.03798562984595103,"69":-0.013726745646792375,"70":-0.090383702679474,"71":-0.15530218694645714,"72":-0.14213485233867684,"73":-0.14800117903734436,"74":-0.09205454794389727,"75":0.11726476876810711,"76":0.030078155904508866,"77":-0.017018204089500933,"78":-0.08230460265168203,"79":-0.08414883399719703,"80":-0.12687302609545778,"81":-0.014514545198034542,"82":0.17901687797383262,"83":0.057844736068564453,"84":-0.04897684417293669,"85":-0.1069262964181344,"86":-0.10051566706621479,"87":-0.16594299617423725,"88":0.02579182891691737,"89":0.0008223044112829871,"90":0.11878896720614897,"91":-0.022649613352225966,"92":-0.09488271234465227,"93":-0.06620058060596173,"94":-0.07435987581033582,"95":-0.025466227147229282,"96":0.0658567292134399,"97":0.15409491972637665,"98":-0.0692135735016892,"99":-0.05773200921603099,"100":-0.028196363451902344,"101":-0.12694952282229377,"102":-0.04599782589964115,"103":0.15821931167608974,"104":0.13320680112180575,"105":-0.08215369133672798,"106":-0.021792847916632885,"107":-0.11237456008102023,"108":-0.204035028098108,"109":-0.05867347039156791,"110":0.05760345318374807,"111":-0.04634536054121749,"112":-0.0335221788382239,"113":-0.13295026392035472,"114":-0.16208760172314854,"115":-0.11381078692474489,"116":-0.021323091218823646,"117":0.05157018682781022,"118":0.1130520793186136,"119":-0.004677119095022688,"120":-0.07123141671996866,"121":-0.12460266770057513,"122":-0.14334231898286967,"123":-0.13481750932633904,"124":-0.10075635575503213,"125":0.074444572917726,"126":-0.07127118980462893,"127":-0.197643395445334,"128":-0.17677206408540358,"129":-0.046925155622055036,"130":-0.04353439547857561,"131":-0.04935031324045968,"132":0.055063022085394056,"133":-0.08034446759178851,"134":-0.10347934336462741,"135":-0.049374508866544674,"136":-0.05852030355226458,"137":-0.04736867783639905,"138":-0.017320732386842626,"139":0.08420232562360634,"140":0.021004469999400827,"141":-0.08228202284421403,"142":-0.007675116924259882,"143":-0.19810848912877096,"144":0.03804022512370112,"145":0.06836299492733194,"146":0.1546823979760685,"147":-0.049631818070735086,"148":-0.21745245167510238,"149":-0.1292058260617905,"150":-0.14251992900411933,"151":0.0034498158354484567,"152":0.00226155165145666,"153":0.02269324465841365,"154":0.010197774609319962,"155":-0.2762560426574318,"156":-0.13025537211726607,"157":-0.08352707790756253,"158":-0.006531942052894033,"159":0.05687437556406759,"160":0.008296866175023683,"161":0.019479232105564757,"162":-0.07698082150059661,"163":-0.09245182932968661,"164":-0.14784377948304703,"165":-0.06792712674827751,"166":0.027101640184413175,"167":0.11180881176396026,"168":-0.029989451940199252,"169":-0.05556703040012178,"170":-0.10804184692125803,"171":-0.1758672435641316,"172":-0.18144088553331328,"173":0.0011503171388480423,"174":0.0904728547583223,"175":-0.04629951842402282,"176":-0.10403047044028996,"177":-0.0544604320549229,"178":-0.10978141629279456,"179":-0.18530403760783298,"180":0.07063492247051988,"181":0.1715372182789151,"182":-0.004630886250828051,"183":-0.14761847833766575,"184":0.0011559712587708162,"185":-0.05357246883677203,"186":-0.09055827614930897,"187":0.01662497336954107,"188":0.16897199332076823,"189":-0.02605649155678692,"190":-0.0984788490337259,"191":-0.03477061341850227,"192":-0.16142577216711188,"193":-0.03249098849465142,"194":0.1147159595598112,"195":0.11347595712928993,"196":-0.041215345873428885,"197":-0.06166961750921259,"198":-0.09430853893209062,"199":-0.17019298627340515,"200":-0.025778258508968192,"201":0.046877053667074904,"202":0.03622268344370847,"203":0.042935495118981794,"204":-0.056388087494479655,"205":-0.11524796896916903,"206":-0.14168259998996058,"207":0.03857557718028227,"208":0.09296444127198601,"209":0.021385817982767147,"210":0.02682458383011322,"211":0.07899716736324364,"212":-0.10826162622831831,"213":-0.07528218763200645,"214":-0.021188304752959655,"215":0.05386788183494921,"216":-0.04533493708052941,"217":0.10251426481513817,"218":-0.0128130782956985,"219":-0.023322657646995655,"220":0.027810375048440306,"221":-0.0097322913984753,"222":0.02660802441019107,"223":-0.004875312830596096,"224":0.003468507392372742,"225":0.07498791122277008,"226":-0.012764594827788073,"227":-0.05239833993281983,"228":0.006429753659050794,"229":-0.06364941258560032,"230":0.023520505602108267,"231":0.033301175362347536,"232":0.026111431825212385,"233":0.03986400685371342,"234":-0.05399243247836629,"235":0.05754151006887316,"236":0.08080162568037032,"237":-0.007534336586850596,"238":0.03678370167929934,"239":-0.03792553689213716,"240":-0.05819757959343542,"241":-0.12266448725879533,"242":-0.05522331392292262,"243":-0.0940812447867264,"244":0.08215177876545744,"245":0.07385768965041792,"246":0.0585226575671656,"247":0.02228821388338957,"248":-0.13665117707178268,"249":-0.037280276957692766,"250":-0.04136924756785914,"251":0.006368856415667107,"252":0.04955870356857013,"253":0.0771085906727468,"254":0.0017692630797403414,"255":-0.042802546939666744,"256":0.0698519402995091,"257":-0.06354023696397319,"258":0.11356788769742392,"259":0.027846559958492265,"260":0.07063993461067174,"261":-0.030985716666068086,"262":-0.10620510929882129,"263":0.04725400313915163,"264":-0.1356207691695814,"265":0.09696763141894434,"266":-0.020931211498291507,"267":0.026859472711516136,"268":-0.09847485957736073,"269":-0.024528885720659158,"270":-0.08009282757165322,"271":-0.11444716228411513,"272":0.10472337473616365,"273":-0.03208074151979644,"274":0.08931350453352489,"275":-0.018077399404514492,"276":-0.02352229671230212,"277":-0.006277668341782635,"278":0.053396219547697826,"279":0.09812329584248777,"280":0.09168008179696505,"281":-0.00534484408988117,"282":-0.09953352825946989,"283":-0.15507291084617633,"284":-0.0852366688267674,"285":0.06362368388261455,"286":0.059152605181123585,"287":0.05829681731487271,"288":-0.06458717457989964,"289":0.03885436654214364,"290":-0.11653729958678236,"291":0.06631239701672306,"292":-0.11489169147095112,"293":0.0364599548886438,"294":0.0068369538799338565,"295":0.08343943682888512,"296":0.14043567737902976,"297":-0.057046196330128696,"298":-0.05840274544168304,"299":-0.05398320260918278,"300":0.05981232058511577,"301":0.005987835372872308,"302":0.08602311591658818,"303":0.055075364347345085,"304":-0.067538774945578,"305":-0.012138714937910734,"306":-0.04432326901866169,"307":0.10341136540525449,"308":0.0664628211139097,"309":-0.09391712134317011,"310":0.02460228300459922,"311":0.04120359132016947,"312":-0.014314996039144115,"313":-0.016294593161392954,"314":-0.06295439942572448,"315":-0.07743553780609959,"316":0.0715672819440364,"317":-0.05476370145019919,"318":0.025196747890637947,"319":0.08749578720723804,"320":0.00453912821296893,"321":0.018234158728234737,"322":0.08746831857866134,"323":0.1130846765783054,"324":-0.05789081339096839,"325":0.006193307742641807,"326":-0.03483507049038527,"327":0.02336463677798821,"328":0.0364683232505801,"329":-0.027328738832778286,"330":0.112231914230864,"331":-0.07961525448090968,"332":-0.0028000606181134207,"333":-0.03546607816976181,"334":0.1231560455548338,"335":0.008669880495527846,"336":0.02527797395014107,"337":0.08200395740774272,"338":-0.07023629410032384,"339":0.020815441825793538,"340":-0.07537621715365783,"341":0.01782174404195795,"342":0.04219487941137055,"343":-0.07794612711087476,"344":0.10551110901846648,"345":-0.11095950430053698,"346":0.03116379306175581,"347":-0.07474841546360135,"348":0.04383239160926621,"349":-0.02445478059950468,"350":0.000790031070026794,"351":-0.00467925714790183,"352":-0.06029999517017856,"353":-0.06463820193522057,"354":-0.024953183620809238,"355":-0.0018222479517214043,"356":0.06622749947559367,"357":0.07583813742384234,"358":-0.04123382383650534,"359":-0.037834046499648465,"360":-0.1002879090439193,"361":-0.0005409351553070049,"362":0.025732604654692407,"363":-0.09805833498407075,"364":0.07700747131276853,"365":-0.0007420247135894625,"366":-0.06146721499806114,"367":-0.09213147973119272,"368":0.006375825753571561,"369":0.13689972562997885,"370":-0.03309301320425794,"371":0.041582508447285865,"372":-0.05707458941317184,"373":-0.11343145986338107,"374":-0.06284702735094021,"375":-0.013155851974095155,"376":0.06389984092543624,"377":-0.0445375540819234,"378":0.08613201196117647,"379":-0.15139491745159037,"380":-0.013982056491445741,"381":-0.004021699778032603,"382":-0.006831673724446822,"383":0.0900605351520079,"384":-0.07146867208242806,"385":0.020165054368023887,"386":-0.03617031827917597,"387":0.07335916267768312,"388":0.07933465537296158,"389":0.08125194341692486,"390":-0.03590248813776434,"391":0.008298980218432615,"392":0.004884475857391151,"393":-0.010489273450603348,"394":0.020933921125469983,"395":-0.021421366849351184,"396":0.09430097050325975,"397":0.16300530700481336,"398":0.04571996465044448,"399":0.074126148559474,"400":-0.04484526978443733,"401":0.03689030406746859,"402":-0.08594679887889034,"403":0.05173320287155116,"404":0.09438391462458713,"405":0.03310062527893403,"406":-0.017435335375037855,"407":-0.09718198168873604,"408":0.03572544771401978,"409":0.03882760723386949,"410":-0.03862496956791843,"411":0.1313336056409718,"412":0.032301498047719916,"413":0.04707422747562336,"414":-0.07322378882323588,"415":0.048558990187148314,"416":0.165000607748206,"417":0.07510548621336262,"418":0.05798917949933269,"419":0.03345510200546556}},{"sx":1,"sy":1,"depth":420,"w":{"0":-0.017693323879666756,"1":-0.09053695675368674,"2":0.098439002763164,"3":-0.09513891639224342,"4":-0.00860509462611934,"5":-0.06242640016699864,"6":-0.0025815533508853176,"7":0.01937282416693127,"8":-0.04613081306533489,"9":-0.018002721920869904,"10":-0.015138595322874863,"11":-0.04476299847731215,"12":0.0013059801330238176,"13":-0.02264887850650233,"14":-0.04010159781630159,"15":0.04923235124755868,"16":-0.010165451516627627,"17":-0.13367617138969046,"18":-0.0029659238228238074,"19":0.02190203175746599,"20":0.027592123548989,"21":-0.036699721489513504,"22":0.004262850205741717,"23":-0.011141906396614044,"24":-0.06205408857960522,"25":-0.004430988660242052,"26":-0.002185499768136821,"27":0.043811548481741486,"28":-0.1023575785413952,"29":-0.08767701354406647,"30":0.031429860948210445,"31":0.044623000587333685,"32":-0.04683627653235748,"33":-0.009590867294632544,"34":-0.08717637500574954,"35":-0.006424402223724891,"36":-0.0009569090675403121,"37":-0.09014716613193713,"38":-0.044687567776660254,"39":0.06410809442267762,"40":0.009507328503061577,"41":0.015886736633908462,"42":0.0313115227507279,"43":-0.051074737020427245,"44":-0.06843631799023671,"45":-0.030442741285842248,"46":-0.03669525825516544,"47":-0.08408041389453093,"48":-0.04120634744011491,"49":0.0023721033452699246,"50":0.010144182669659992,"51":-0.04219622995288036,"52":0.029275297276730252,"53":0.016013279924417947,"54":-0.005871794159670254,"55":-0.013256935346560961,"56":-0.0027849042719093418,"57":0.059026875436078166,"58":0.029825497355794383,"59":-0.03411185665599162,"60":0.07505526050962918,"61":0.016395532475248203,"62":-0.06771442788566905,"63":-0.049105907573932545,"64":-0.09329934932439672,"65":-0.04513058774117708,"66":-0.07569248801434092,"67":-0.08904662908741655,"68":0.020148070564263168,"69":-0.04310981047009682,"70":-0.024062404400991038,"71":-0.030909593486534416,"72":-0.04702443441261236,"73":-0.15289252476490123,"74":-0.01293705771361176,"75":0.02701714515138412,"76":-0.0527395806661883,"77":-0.09742621852504388,"78":0.09121345255310154,"79":-0.013504910991821039,"80":-0.020496995769321597,"81":-0.049718706632696,"82":-0.022845846563834007,"83":0.008659254229064783,"84":0.02743251671980298,"85":-0.02389013599626691,"86":-0.052727883844195134,"87":-0.006595939389917203,"88":0.014115223012671816,"89":-0.10605944449543142,"90":-0.05770551621025432,"91":-0.030226675496691797,"92":-0.09640049844529065,"93":-0.012329500887433209,"94":-0.09336544043433617,"95":-0.06576599460836122,"96":-0.014419841790342038,"97":0.01898490469717991,"98":-0.01799507549979832,"99":-0.038090738525646456,"100":0.012849982106972798,"101":-0.05972642947523818,"102":-0.10313009688489644,"103":0.020571996171014618,"104":-0.06325894089863214,"105":-0.042439846620219546,"106":0.10598491999247067,"107":-0.017827171667015876,"108":-0.09735857971930338,"109":-0.05733020277942747,"110":-0.045481035170274964,"111":-0.07465752803504117,"112":0.10458782923858684,"113":-0.09415955519614427,"114":-0.020295430742863236,"115":0.03586578979495419,"116":0.11868457385442362,"117":-0.07466966843523784,"118":0.012986879322004876,"119":-0.038760461397781436,"120":0.027713387735877334,"121":-0.010159852045933476,"122":-0.008685886563352434,"123":-0.03302715989937771,"124":-0.08164530612683646,"125":0.018654525763710635,"126":-0.015533577429747671,"127":0.07164418817060747,"128":-0.014352653071101278,"129":-0.008301564676873017,"130":-0.044405642525125015,"131":0.04119476026909662,"132":0.027848475072981254,"133":-0.11105061144840077,"134":0.010734115267082593,"135":0.011139719259357065,"136":-0.012267627507064659,"137":-0.06591230565043085,"138":-0.027962361509332637,"139":-0.0666234011881692,"140":-0.037931162723476165,"141":-0.018398693470549975,"142":-0.0023035799419102985,"143":-0.05579679506202953,"144":-0.08740192059001572,"145":0.036627568567134526,"146":-0.038024904921520164,"147":-0.0010814379897789337,"148":-0.037312478366804784,"149":0.05287962759089506,"150":0.013005169443913727,"151":0.021235008941753196,"152":-0.04143861464012399,"153":0.0045007426772707875,"154":-0.045909034357621906,"155":-0.020952091537239082,"156":0.060223200174261686,"157":-0.04607429275781736,"158":-0.11325573988502584,"159":-0.06296826861232857,"160":0.03231200791270266,"161":-0.027997553427480674,"162":0.03299097149315348,"163":-0.1047408762371812,"164":-0.0741904758429791,"165":0.018390716064705808,"166":-0.04410745350618967,"167":-0.02031478945684332,"168":-0.025427130611059095,"169":0.06506911741961262,"170":-0.003949935092870706,"171":-0.07961797830533837,"172":-0.05050684522830677,"173":0.008976040701847035,"174":-0.11509047691398712,"175":0.004879288263523092,"176":0.026230611135593915,"177":-0.0009714656281469959,"178":-0.029466758765815164,"179":0.007498875566252922,"180":0.0005991691082213954,"181":0.013263454659120922,"182":-0.011292423552908982,"183":-0.04555188262032077,"184":-0.024447646086279456,"185":-0.022747227895894635,"186":0.004061893132207649,"187":-0.06541698822074725,"188":-0.06287370170426144,"189":0.09079384663644671,"190":-0.07123363303858529,"191":0.03706106160879122,"192":-0.018821445224881623,"193":-0.003181444812632995,"194":-0.010850987241132301,"195":0.06501344709221027,"196":-0.024409184213870703,"197":-0.009871700185465687,"198":0.023111455008897237,"199":0.0128054456195432,"200":-0.043388718003706764,"201":-0.06790662396606718,"202":0.08697465011842946,"203":0.00397577939044178,"204":0.08006168560310975,"205":-0.08778354461776558,"206":-0.042612225163066494,"207":0.05123596430527455,"208":-0.05010984726806193,"209":-0.03248265556955889,"210":-0.09124352173302298,"211":-0.00006857387567395717,"212":-0.08940825154273974,"213":-0.04714328226731482,"214":0.11170365717977883,"215":0.06784845638625571,"216":0.0005660829690948962,"217":-0.00906113926853318,"218":0.0474892576945262,"219":-0.01482164630656549,"220":-0.08979710661589145,"221":-0.05461581030037989,"222":-0.0195569563393938,"223":-0.02535010696389954,"224":-0.0246656078119446,"225":-0.05683339109210437,"226":0.011157574013017106,"227":0.11276549240048116,"228":-0.05048088351709601,"229":-0.0551400650209167,"230":0.06890238531565071,"231":-0.03402809128869019,"232":-0.012096257080026943,"233":-0.047481207799081215,"234":-0.1955755283562057,"235":0.11795349958712628,"236":-0.03311752958567061,"237":-0.05517857148822885,"238":-0.09128438491375881,"239":-0.00391760988024853,"240":0.09625932285342173,"241":-0.07335433941331247,"242":0.04426058835421162,"243":-0.028201762689384454,"244":0.03010230269144219,"245":-0.05383308552892683,"246":0.00006620834488054796,"247":-0.06002501493032766,"248":-0.0007610460630282019,"249":-0.0049544020889961075,"250":0.013919761374334635,"251":-0.008438006668665394,"252":0.03061410767265308,"253":-0.01983150138022717,"254":-0.01565560433135093,"255":-0.07289543021184904,"256":0.1306888016293743,"257":0.03944461062842891,"258":-0.006873858460193439,"259":-0.02003166608301867,"260":-0.024560481897635607,"261":-0.031214482133829092,"262":-0.007455197054985799,"263":0.004144874611263617,"264":-0.07099291366949265,"265":-0.028471450276806913,"266":-0.07119928221386221,"267":0.031079334271079152,"268":-0.04267552700848806,"269":-0.0837729967400142,"270":0.026502025606730054,"271":-0.10593911523195776,"272":-0.04594118193395355,"273":-0.010649311562569642,"274":-0.0324344440527011,"275":-0.0452644500483972,"276":0.0030608736400412942,"277":-0.038653006518703466,"278":-0.06431001805830334,"279":-0.03656293758671358,"280":-0.02546840243438304,"281":0.0528545877833649,"282":0.039647084070430876,"283":0.02718341417906089,"284":-0.0405420764681052,"285":-0.042480900564485426,"286":-0.00688331174918192,"287":0.024975307086240125,"288":-0.06842116182083138,"289":-0.005836094206805597,"290":-0.053228178963863934,"291":0.0032824611450170214,"292":-0.13316854305873063,"293":-0.006903351036189825,"294":-0.09063086935963871,"295":-0.026687317196245345,"296":0.0052517181266977875,"297":0.006055144183807183,"298":0.05629393899759888,"299":0.00911184474942263,"300":0.025173085518863176,"301":0.02280484812696611,"302":0.02495829406891297,"303":-0.017314899041903014,"304":-0.06181048281680368,"305":-0.05277697662231373,"306":-0.07199742882722923,"307":0.016348101603565136,"308":-0.013384075341808773,"309":0.0403918878165165,"310":0.0035537095335551514,"311":-0.033518075411671316,"312":-0.015635944834627758,"313":-0.035224237734793946,"314":-0.04327683347823827,"315":0.04482592602750138,"316":-0.021113092763550643,"317":-0.01341972396331004,"318":-0.014261098666517735,"319":-0.053962520844702884,"320":0.04601681849523186,"321":-0.09843663245069195,